{"learner":{"attributes":{"scikit_learn":"{\"_estimator_type\": \"regressor\"}"},"feature_names":["blood","circulatory","congenital","digestive","endocrine","genitourinary","infectious","injury","mental","misc","muscular","neoplasms","nervous","pregnancy","prenatal","respiratory","skin","gender","Neuro Intermediate","Neuro Surgical Intensive Care Unit (Neuro SICU)","Other-ICU","ADM_ELECTIVE","ADM_EMERGENCY","ADM_OBSERVATION","ADM_SURGICAL SAME DAY ADMISSION","INS_Medicaid","INS_Medicare","INS_Other","RACE_ASIAN","RACE_BLACK/AFRICAN AMERICAN","RACE_HISPANIC/LATINO","RACE_OTHER/UNKNOWN","RACE_WHITE","AGE_middle_adult","AGE_senior","AGE_young_adult","MAR_DIVORCED","MAR_MARRIED","MAR_SINGLE","MAR_UNKNOWN (DEFAULT)","MAR_WIDOWED"],"feature_types":["int","int","int","int","int","int","int","int","int","int","int","int","int","int","int","int","int","int","float","float","float","int","int","int","int","int","int","int","int","int","int","int","int","int","int","int","int","int","int","int","int"],"gradient_booster":{"model":{"gbtree_model_param":{"num_parallel_tree":"1","num_trees":"100"},"iteration_indptr":[0,1,2,3,4,5,6,7,8,9,10,11,12,13,14,15,16,17,18,19,20,21,22,23,24,25,26,27,28,29,30,31,32,33,34,35,36,37,38,39,40,41,42,43,44,45,46,47,48,49,50,51,52,53,54,55,56,57,58,59,60,61,62,63,64,65,66,67,68,69,70,71,72,73,74,75,76,77,78,79,80,81,82,83,84,85,86,87,88,89,90,91,92,93,94,95,96,97,98,99,100],"tree_info":[0,0,0,0,0,0,0,0,0,0,0,0,0,0,0,0,0,0,0,0,0,0,0,0,0,0,0,0,0,0,0,0,0,0,0,0,0,0,0,0,0,0,0,0,0,0,0,0,0,0,0,0,0,0,0,0,0,0,0,0,0,0,0,0,0,0,0,0,0,0,0,0,0,0,0,0,0,0,0,0,0,0,0,0,0,0,0,0,0,0,0,0,0,0,0,0,0,0,0,0],"trees":[{"base_weights":[7.92691E-8,-7.9241306E-1,5.167147E0,3.1679302E-1,-2.1427824E0,4.29494E0,1.5463541E1,1.369748E-1,5.6430984E0,-2.8829176E0,1.4450027E0,3.696047E0,1.2906319E1,1.2744661E1,2.5063377E1,-2.0260772E-1,1.9183627E0,5.081046E0,1.6241112E1,-3.2137654E0,-1.6512576E0,5.499432E-1,5.277763E0,3.1271276E0,7.2682695E0,9.421422E0,1.8424227E1,1.5035752E1,1.083711E1,2.4447323E1,4.954526E1,-6.48413E-1,5.1760924E-1,1.4683816E0,6.1780953E0,4.730674E0,1.2511591E1,1.4527686E1,3.757066E1,-3.3696346E0,-2.80326E0,-2.0373366E0,-1.1597365E0,-1.989671E-1,1.4375776E0,4.466984E0,1.1336873E1,2.5737615E0,6.95365E0,6.556344E0,1.2793081E1,7.036579E0,1.2871481E1,1.7071728E1,3.3435024E1,1.3577439E1,1.7741547E1,9.347782E0,1.3614486E1,2.8217447E1,2.1074938E1,5.110581E1,3.4524033E0,-3.2040286E-1,6.42389E-2,9.0274304E-2,6.2456554E-1,2.19155E-1,9.2818576E-1,1.3121011E0,3.467053E0,1.137896E0,1.9179114E0,3.398877E0,1.0310846E1,3.6820514E0,5.121667E0,8.695333E0,2.2110704E1,-1.0481725E0,-8.697323E-1,-8.862882E-1,-7.8403693E-1,-6.156645E-1,7.7884394E-1,-3.7785697E-1,-8.7462805E-2,-6.77902E-2,1.2743063E0,4.1701373E-1,2.0941668E0,1.0596042E0,1.8240533E0,2.8331873E0,4.301455E0,6.4401066E-1,1.4929395E0,2.4564364E0,1.7203468E0,1.5036656E0,2.5030866E0,3.526207E0,6.422684E0,1.9174463E0,3.638052E0,3.777421E0,2.1395565E1,4.3760943E0,6.6855245E0,8.13772E0,1.5411492E1,4.794194E0,3.5726721E0,5.212363E0,1.0492538E1,2.7125173E0,4.1624002E0,3.9272423E0,5.973732E0,1.0220349E1,7.2273116E0,5.1153812E0,6.834474E0,1.7340397E1,8.759145E0],"categories":[],"categories_nodes":[],"categories_segments":[],"categories_sizes":[],"default_left":[0,0,0,0,0,0,0,0,0,0,0,0,0,0,0,0,0,0,0,0,0,0,0,0,0,0,0,0,0,0,0,0,0,0,0,0,0,0,0,0,0,0,0,0,0,0,0,0,0,0,0,0,0,0,0,0,0,0,0,0,0,0,0,0,0,0,0,0,0,0,0,0,0,0,0,0,0,0,0,0,0,0,0,0,0,0,0,0,0,0,0,0,0,0,0,0,0,0,0,0,0,0,0,0,0,0,0,0,0,0,0,0,0,0,0,0,0,0,0,0,0,0,0,0,0],"id":0,"left_children":[1,3,5,7,9,11,13,15,17,19,21,23,25,27,29,31,33,35,37,39,41,43,45,47,49,51,53,55,57,59,61,63,65,67,69,71,73,75,77,79,81,83,85,87,89,91,93,95,97,99,101,103,105,107,109,111,113,115,117,119,121,123,-1,-1,-1,-1,-1,-1,-1,-1,-1,-1,-1,-1,-1,-1,-1,-1,-1,-1,-1,-1,-1,-1,-1,-1,-1,-1,-1,-1,-1,-1,-1,-1,-1,-1,-1,-1,-1,-1,-1,-1,-1,-1,-1,-1,-1,-1,-1,-1,-1,-1,-1,-1,-1,-1,-1,-1,-1,-1,-1,-1,-1,-1,-1],"loss_changes":[1.3830168E6,4.3865906E5,4.0326988E5,1.539976E5,3.5071675E5,2.1349506E5,9.1216125E4,9.409031E4,3.1195797E4,4.4609812E4,7.748289E4,7.865806E4,5.1591844E4,1.179E4,1.0447281E4,4.194481E4,4.7724977E4,1.2926852E4,9.102484E3,5.51275E3,4.3973555E3,1.2173344E4,2.0955625E4,7.070131E4,2.0833156E4,1.3501844E4,2.0563688E4,4.652E3,6.060828E3,9.0173125E3,4.8032812E2,2.920391E4,1.6929938E4,2.7015395E4,2.3038953E4,7.403336E3,5.3978906E3,1.2014805E3,3.7582324E3,3.6471875E3,6.733281E2,9.0041797E2,8.834756E2,1.1935228E3,2.1981543E3,5.669289E3,2.7279336E3,2.9930812E4,6.3027188E3,1.2965031E4,5.173508E3,3.1372188E3,1.0135211E4,1.2071781E4,8.225734E3,3.0576562E3,2.1183125E3,1.2281719E3,1.4543359E3,7.7252188E3,2.3789375E3,8.0609375E2,0E0,0E0,0E0,0E0,0E0,0E0,0E0,0E0,0E0,0E0,0E0,0E0,0E0,0E0,0E0,0E0,0E0,0E0,0E0,0E0,0E0,0E0,0E0,0E0,0E0,0E0,0E0,0E0,0E0,0E0,0E0,0E0,0E0,0E0,0E0,0E0,0E0,0E0,0E0,0E0,0E0,0E0,0E0,0E0,0E0,0E0,0E0,0E0,0E0,0E0,0E0,0E0,0E0,0E0,0E0,0E0,0E0,0E0,0E0,0E0,0E0,0E0,0E0],"parents":[2147483647,0,0,1,1,2,2,3,3,4,4,5,5,6,6,7,7,8,8,9,9,10,10,11,11,12,12,13,13,14,14,15,15,16,16,17,17,18,18,19,19,20,20,21,21,22,22,23,23,24,24,25,25,26,26,27,27,28,28,29,29,30,30,31,31,32,32,33,33,34,34,35,35,36,36,37,37,38,38,39,39,40,40,41,41,42,42,43,43,44,44,45,45,46,46,47,47,48,48,49,49,50,50,51,51,52,52,53,53,54,54,55,55,56,56,57,57,58,58,59,59,60,60,61,61],"right_children":[2,4,6,8,10,12,14,16,18,20,22,24,26,28,30,32,34,36,38,40,42,44,46,48,50,52,54,56,58,60,62,64,66,68,70,72,74,76,78,80,82,84,86,88,90,92,94,96,98,100,102,104,106,108,110,112,114,116,118,120,122,124,-1,-1,-1,-1,-1,-1,-1,-1,-1,-1,-1,-1,-1,-1,-1,-1,-1,-1,-1,-1,-1,-1,-1,-1,-1,-1,-1,-1,-1,-1,-1,-1,-1,-1,-1,-1,-1,-1,-1,-1,-1,-1,-1,-1,-1,-1,-1,-1,-1,-1,-1,-1,-1,-1,-1,-1,-1,-1,-1,-1,-1,-1,-1],"split_conditions":[1E0,1E0,2.6E1,2E1,1.4E1,2E0,3.6E1,1E0,3.5E1,8E0,2.4E1,2E0,2E0,1E0,1E0,4E0,2E0,1E0,1E0,4E0,1.1E1,1.8E1,3.4E1,1.9E1,3E0,5E0,4E0,3.1E1,3.1E1,1E0,1E0,1E0,1.5E1,4E0,1E0,2.5E1,1E0,3.8E1,1E0,1E0,6E0,1E0,1E0,1E0,1E0,2.8E1,3.8E1,1E0,1E0,4E0,6E0,4E0,7E0,7E0,4E0,1E0,1E0,1E0,1E0,1E0,3.8E1,1E0,3.4524033E0,-3.2040286E-1,6.42389E-2,9.0274304E-2,6.2456554E-1,2.19155E-1,9.2818576E-1,1.3121011E0,3.467053E0,1.137896E0,1.9179114E0,3.398877E0,1.0310846E1,3.6820514E0,5.121667E0,8.695333E0,2.2110704E1,-1.0481725E0,-8.697323E-1,-8.862882E-1,-7.8403693E-1,-6.156645E-1,7.7884394E-1,-3.7785697E-1,-8.7462805E-2,-6.77902E-2,1.2743063E0,4.1701373E-1,2.0941668E0,1.0596042E0,1.8240533E0,2.8331873E0,4.301455E0,6.4401066E-1,1.4929395E0,2.4564364E0,1.7203468E0,1.5036656E0,2.5030866E0,3.526207E0,6.422684E0,1.9174463E0,3.638052E0,3.777421E0,2.1395565E1,4.3760943E0,6.6855245E0,8.13772E0,1.5411492E1,4.794194E0,3.5726721E0,5.212363E0,1.0492538E1,2.7125173E0,4.1624002E0,3.9272423E0,5.973732E0,1.0220349E1,7.2273116E0,5.1153812E0,6.834474E0,1.7340397E1,8.759145E0],"split_indices":[20,23,7,7,7,6,7,6,7,7,7,15,15,26,19,7,0,19,31,7,7,7,7,7,3,7,6,7,7,26,35,8,7,7,14,7,18,7,25,3,7,19,35,19,19,7,7,6,26,7,3,3,6,7,15,34,19,24,39,34,7,31,0,0,0,0,0,0,0,0,0,0,0,0,0,0,0,0,0,0,0,0,0,0,0,0,0,0,0,0,0,0,0,0,0,0,0,0,0,0,0,0,0,0,0,0,0,0,0,0,0,0,0,0,0,0,0,0,0,0,0,0,0,0,0],"split_type":[0,0,0,0,0,0,0,0,0,0,0,0,0,0,0,0,0,0,0,0,0,0,0,0,0,0,0,0,0,0,0,0,0,0,0,0,0,0,0,0,0,0,0,0,0,0,0,0,0,0,0,0,0,0,0,0,0,0,0,0,0,0,0,0,0,0,0,0,0,0,0,0,0,0,0,0,0,0,0,0,0,0,0,0,0,0,0,0,0,0,0,0,0,0,0,0,0,0,0,0,0,0,0,0,0,0,0,0,0,0,0,0,0,0,0,0,0,0,0,0,0,0,0,0,0],"sum_hessian":[3.37771E5,2.9286E5,4.4911E4,1.60788E5,1.32072E5,4.1405E4,3.506E3,1.55538E5,5.25E3,1.09486E5,2.2586E4,3.8714E4,2.691E3,2.734E3,7.72E2,1.30636E5,2.4902E4,4.987E3,2.63E2,8.6302E4,2.3184E4,1.8311E4,4.275E3,3.3397E4,5.317E3,1.651E3,1.04E3,1.239E3,1.495E3,7.55E2,1.7E1,8.069E4,4.9946E4,2.2524E4,2.378E3,4.764E3,2.23E2,2.45E2,1.8E1,6.2546E4,2.3756E4,1.2983E4,1.0201E4,9.932E3,8.379E3,3.772E3,5.03E2,2.9179E4,4.218E3,4.712E3,6.05E2,9.78E2,6.73E2,9.56E2,8.4E1,8.09E2,4.3E2,9.76E2,5.19E2,3.53E2,4.02E2,1.6E1,1E0,5.4283E4,2.6407E4,4.387E4,6.076E3,1.5493E4,7.031E3,1.782E3,5.96E2,3.048E3,1.716E3,2.13E2,1E1,1.33E2,1.12E2,1.6E1,2E0,4.9473E4,1.3073E4,1.3221E4,1.0535E4,1.2942E4,4.1E1,9.149E3,1.052E3,9.873E3,5.9E1,8.309E3,7E1,2.39E3,1.382E3,3.11E2,1.92E2,2.4777E4,4.402E3,2.093E3,2.125E3,2.53E3,2.182E3,5.42E2,6.3E1,8.7E2,1.08E2,6.71E2,2E0,6.5E2,3.06E2,6.4E1,2E1,3.28E2,4.81E2,4.23E2,7E0,9.17E2,5.9E1,4.82E2,3.7E1,1.43E2,2.1E2,1.23E2,2.79E2,1.1E1,5E0],"tree_param":{"num_deleted":"0","num_feature":"41","num_nodes":"125","size_leaf_vector":"1"}},{"base_weights":[7.6388277E-4,-5.544413E-1,3.6211312E0,2.2214535E-1,-1.4998733E0,2.95813E0,1.0381156E1,1.1555031E-1,4.7805457E0,-1.9795252E0,1.2331659E0,2.5282621E0,9.058695E0,8.650224E0,1.7620625E1,8.108869E-3,3.369471E0,4.2576246E0,1.1518815E1,-2.2189019E0,-9.5788944E-1,6.8836683E-1,4.4575615E0,2.2701375E0,6.760543E0,6.6135964E0,1.2930206E1,1.0249464E1,7.278549E0,1.7152012E1,3.632346E1,-1.3619383E-1,1.6180907E0,3.1609814E0,1.9220581E1,3.9488254E0,9.683061E0,1.0205168E1,2.7920834E1,-2.4502716E0,-2.0131238E0,-1.2185822E0,-6.296586E-1,2.594092E-1,1.797075E0,3.800849E0,8.51759E0,1.8400253E0,4.0929823E0,4.536815E0,8.735412E0,5.68007E0,1.2696077E1,1.066527E1,2.0167837E1,9.145656E0,1.2103852E1,6.441811E0,1.0192687E1,1.3087523E1,1.9017107E1,4.7036747E1,2.7047085E1,-8.0630146E-2,4.206932E-1,3.54442E-1,1.5547366E0,7.529993E-1,2.2460864E0,7.382856E0,1.463534E0,1.1118023E0,2.2941546E0,2.595265E0,8.002398E0,2.9408288E0,5.616502E0,6.2401805E0,1.7688564E1,-7.7791405E-1,-6.507305E-1,-6.368922E-1,-5.32789E-1,-3.7414408E-1,3.831799E-1,-2.1223044E-1,4.454219E-2,1.7551187E-1,-1.4293865E-2,7.2836345E-1,3.9240563E-1,1.0912683E0,3.3830101E0,2.1934066E0,3.1941679E0,3.0907533E-1,9.9478084E-1,1.0831897E0,1.6708678E0,1.087723E0,2.0086384E0,2.2958813E0,3.9124963E0,1.3922434E0,2.6477277E0,3.6289399E0,2.1511715E1,3.0399163E0,1.0783263E1,3.780363E0,7.5432467E0,3.3852963E0,2.3118646E0,3.8041809E0,2.1704085E0,1.6815263E0,2.196226E0,2.8826613E0,5.3854923E0,4.3377175E0,2.9199142E0,6.760511E0,4.7914543E0,1.6115782E1,1.0412396E0,4.578638E0,9.30954E0],"categories":[],"categories_nodes":[],"categories_segments":[],"categories_sizes":[],"default_left":[0,0,0,0,0,0,0,0,0,0,0,0,0,0,0,0,0,0,0,0,0,0,0,0,0,0,0,0,0,0,0,0,0,0,0,0,0,0,0,0,0,0,0,0,0,0,0,0,0,0,0,0,0,0,0,0,0,0,0,0,0,0,0,0,0,0,0,0,0,0,0,0,0,0,0,0,0,0,0,0,0,0,0,0,0,0,0,0,0,0,0,0,0,0,0,0,0,0,0,0,0,0,0,0,0,0,0,0,0,0,0,0,0,0,0,0,0,0,0,0,0,0,0,0,0,0,0],"id":1,"left_children":[1,3,5,7,9,11,13,15,17,19,21,23,25,27,29,31,33,35,37,39,41,43,45,47,49,51,53,55,57,59,61,63,65,67,69,71,73,75,77,79,81,83,85,87,89,91,93,95,97,99,101,103,105,107,109,111,113,115,117,119,121,123,125,-1,-1,-1,-1,-1,-1,-1,-1,-1,-1,-1,-1,-1,-1,-1,-1,-1,-1,-1,-1,-1,-1,-1,-1,-1,-1,-1,-1,-1,-1,-1,-1,-1,-1,-1,-1,-1,-1,-1,-1,-1,-1,-1,-1,-1,-1,-1,-1,-1,-1,-1,-1,-1,-1,-1,-1,-1,-1,-1,-1,-1,-1,-1,-1],"loss_changes":[6.7893956E5,2.1502178E5,2.0126062E5,7.812728E4,1.7313797E5,1.0723997E5,5.010953E4,5.4928664E4,1.2896594E4,2.7474906E4,3.4636273E4,4.17285E4,2.5397578E4,7.0305938E3,6.1518438E3,3.5335652E4,1.653591E4,5.676449E3,5.403328E3,4.3289375E3,1.8243848E3,8.0227183E3,7.566492E3,2.823E4,9.60425E3,9.308195E3,1.6849781E4,2.9453125E3,4.1941797E3,5.482078E3,5.166406E2,2.8470781E4,1.946429E4,1.3943617E4,4.903717E3,2.8713906E3,2.9787598E3,6.59541E2,2.9729277E3,1.7142969E3,1.2515E3,8.490547E2,5.716572E2,1.2163644E3,1.4486172E3,2.9558477E3,9.39416E2,3.482578E4,4.876453E3,2.0112402E3,5.3167344E3,4.6470547E3,6.881461E3,1.0331594E4,8.98368E3,2.8068203E3,1.4640469E3,9.5915234E2,1.5850703E3,9.680586E2,5.1686094E3,1.8514658E3,8.990527E1,0E0,0E0,0E0,0E0,0E0,0E0,0E0,0E0,0E0,0E0,0E0,0E0,0E0,0E0,0E0,0E0,0E0,0E0,0E0,0E0,0E0,0E0,0E0,0E0,0E0,0E0,0E0,0E0,0E0,0E0,0E0,0E0,0E0,0E0,0E0,0E0,0E0,0E0,0E0,0E0,0E0,0E0,0E0,0E0,0E0,0E0,0E0,0E0,0E0,0E0,0E0,0E0,0E0,0E0,0E0,0E0,0E0,0E0,0E0,0E0,0E0,0E0,0E0,0E0],"parents":[2147483647,0,0,1,1,2,2,3,3,4,4,5,5,6,6,7,7,8,8,9,9,10,10,11,11,12,12,13,13,14,14,15,15,16,16,17,17,18,18,19,19,20,20,21,21,22,22,23,23,24,24,25,25,26,26,27,27,28,28,29,29,30,30,31,31,32,32,33,33,34,34,35,35,36,36,37,37,38,38,39,39,40,40,41,41,42,42,43,43,44,44,45,45,46,46,47,47,48,48,49,49,50,50,51,51,52,52,53,53,54,54,55,55,56,56,57,57,58,58,59,59,60,60,61,61,62,62],"right_children":[2,4,6,8,10,12,14,16,18,20,22,24,26,28,30,32,34,36,38,40,42,44,46,48,50,52,54,56,58,60,62,64,66,68,70,72,74,76,78,80,82,84,86,88,90,92,94,96,98,100,102,104,106,108,110,112,114,116,118,120,122,124,126,-1,-1,-1,-1,-1,-1,-1,-1,-1,-1,-1,-1,-1,-1,-1,-1,-1,-1,-1,-1,-1,-1,-1,-1,-1,-1,-1,-1,-1,-1,-1,-1,-1,-1,-1,-1,-1,-1,-1,-1,-1,-1,-1,-1,-1,-1,-1,-1,-1,-1,-1,-1,-1,-1,-1,-1,-1,-1,-1,-1,-1,-1,-1,-1],"split_conditions":[1E0,1E0,2.5E1,2.2E1,1.5E1,2E0,3.6E1,2E0,3.5E1,9E0,2.6E1,3E0,2E0,1E0,1E0,2E0,5E0,1E0,1E0,2E0,1.2E1,2.1E1,3.5E1,1.5E1,1E0,4E0,3E0,3E1,3.2E1,3.8E1,1E0,1.3E1,2E0,2E0,1E0,1E0,1E0,1E0,1E0,1E0,6E0,1E0,1E0,1E0,1E0,1E0,3.9E1,1E0,2.2E1,1E0,2E0,3E0,7E0,5E0,5E0,1E0,1E0,2.8E1,1E0,1E0,1E0,1E0,1E0,-8.0630146E-2,4.206932E-1,3.54442E-1,1.5547366E0,7.529993E-1,2.2460864E0,7.382856E0,1.463534E0,1.1118023E0,2.2941546E0,2.595265E0,8.002398E0,2.9408288E0,5.616502E0,6.2401805E0,1.7688564E1,-7.7791405E-1,-6.507305E-1,-6.368922E-1,-5.32789E-1,-3.7414408E-1,3.831799E-1,-2.1223044E-1,4.454219E-2,1.7551187E-1,-1.4293865E-2,7.2836345E-1,3.9240563E-1,1.0912683E0,3.3830101E0,2.1934066E0,3.1941679E0,3.0907533E-1,9.9478084E-1,1.0831897E0,1.6708678E0,1.087723E0,2.0086384E0,2.2958813E0,3.9124963E0,1.3922434E0,2.6477277E0,3.6289399E0,2.1511715E1,3.0399163E0,1.0783263E1,3.780363E0,7.5432467E0,3.3852963E0,2.3118646E0,3.8041809E0,2.1704085E0,1.6815263E0,2.196226E0,2.8826613E0,5.3854923E0,4.3377175E0,2.9199142E0,6.760511E0,4.7914543E0,1.6115782E1,1.0412396E0,4.578638E0,9.30954E0],"split_indices":[20,23,7,7,7,6,7,6,7,7,7,15,15,26,19,9,9,19,31,7,7,7,7,7,5,3,3,7,7,7,22,7,0,0,26,21,18,35,25,4,7,18,35,26,26,19,7,5,7,6,0,6,6,12,7,34,40,7,39,23,26,29,26,0,0,0,0,0,0,0,0,0,0,0,0,0,0,0,0,0,0,0,0,0,0,0,0,0,0,0,0,0,0,0,0,0,0,0,0,0,0,0,0,0,0,0,0,0,0,0,0,0,0,0,0,0,0,0,0,0,0,0,0,0,0,0,0],"split_type":[0,0,0,0,0,0,0,0,0,0,0,0,0,0,0,0,0,0,0,0,0,0,0,0,0,0,0,0,0,0,0,0,0,0,0,0,0,0,0,0,0,0,0,0,0,0,0,0,0,0,0,0,0,0,0,0,0,0,0,0,0,0,0,0,0,0,0,0,0,0,0,0,0,0,0,0,0,0,0,0,0,0,0,0,0,0,0,0,0,0,0,0,0,0,0,0,0,0,0,0,0,0,0,0,0,0,0,0,0,0,0,0,0,0,0,0,0,0,0,0,0,0,0,0,0,0,0],"sum_hessian":[3.37771E5,2.9286E5,4.4911E4,1.60788E5,1.32072E5,4.0901E4,4.01E3,1.57115E5,3.673E3,1.12354E5,1.9718E4,3.821E4,2.691E3,3.238E3,7.72E2,1.52094E5,5.021E3,3.41E3,2.63E2,9.1025E4,2.1329E4,1.6869E4,2.849E3,3.6015E4,2.195E3,1.651E3,1.04E3,1.492E3,1.746E3,7.55E2,1.7E1,1.39584E5,1.251E4,4.957E3,6.4E1,3.228E3,1.82E2,2.45E2,1.8E1,4.2843E4,4.8182E4,1.1886E4,9.443E3,1.2164E4,4.705E3,2.454E3,3.95E2,2.9141E4,6.874E3,1.034E3,1.161E3,1.433E3,2.18E2,7.94E2,2.46E2,9.39E2,5.53E2,1.359E3,3.87E2,2.4E2,5.15E2,6E0,1.1E1,1.28511E5,1.1073E4,1.1146E4,1.364E3,4.31E3,6.47E2,4.6E1,1.8E1,3.031E3,1.97E2,1.73E2,9E0,2.36E2,9E0,1.6E1,2E0,2.8409E4,1.4434E4,3.2924E4,1.5258E4,1.1752E4,1.34E2,8.585E3,8.58E2,5.903E3,6.261E3,2.053E3,2.652E3,2.403E3,5.1E1,2.55E2,1.4E2,1.8818E4,1.0323E4,5.184E3,1.69E3,7.29E2,3.05E2,9.3E2,2.31E2,1.079E3,3.54E2,2.17E2,1E0,7.79E2,1.5E1,9.9E1,1.47E2,3.75E2,5.64E2,4.93E2,6E1,7E2,6.59E2,3.62E2,2.5E1,1.68E2,7.2E1,2.36E2,2.79E2,5E0,1E0,4E0,7E0],"tree_param":{"num_deleted":"0","num_feature":"41","num_nodes":"127","size_leaf_vector":"1"}},{"base_weights":[1.1574508E-3,-3.8787335E-1,2.5379393E0,1.5587856E-1,-1.0498477E0,2.0723457E0,7.2851768E0,-3.793374E-1,6.855954E-1,-1.3614484E0,1.0417869E0,1.3959956E0,4.484727E0,6.06251E0,1.2398932E1,-5.6310564E-1,7.504195E-1,4.609202E-1,2.4217734E0,-1.5532598E0,-6.315878E-1,6.9937515E-1,3.8081248E0,9.620617E-1,2.768411E0,2.9630203E0,6.928516E0,5.228052E0,7.42657E0,1.2031288E1,2.7151154E1,-8.1192917E-1,3.959195E-1,3.2478267E-1,1.3646411E0,2.3140197E-1,2.4785635E0,2.212992E0,1.1867467E1,-1.7906461E0,-1.4479549E0,-6.4910316E-1,3.2368908E0,2.1531297E-1,1.2531425E0,2.5973358E0,4.951258E0,3.420746E-1,2.359938E0,3.8713622E0,2.297107E0,1.1755964E0,4.3200173E0,5.9729886E0,1.4044956E1,6.408019E0,4.1904383E0,6.7652073E0,9.125109E0,9.833728E0,1.3931797E1,3.1227434E1,1.3794022E1,-2.6742387E-1,1.794674E-1,-1.7230229E-3,4.4149312E-1,8.303276E-2,1.3026347E0,1.3432725E-1,5.4211736E-1,1.0207357E-2,4.5524058E-1,5.981243E-1,1.6978266E0,4.5851982E-1,1.2098382E0,1.9372925E0,5.824669E0,-5.577725E-1,-4.0050206E-1,-4.4734055E-1,-2.8238955E-1,-2.4819328E-1,-9.9081896E-2,8.1281453E-1,4.8824368E0,5.5302326E-2,9.43691E-1,3.5622323E-1,2.2455482E0,7.2561526E-1,2.6642509E0,1.9167261E0,1.1532832E0,3.4529988E-2,6.5016186E-1,3.9173493E-1,1.0473298E0,9.7275835E-1,1.644871E0,5.880257E-1,1.0307833E0,3.577437E-2,6.2004715E-1,1.1752449E0,3.536309E0,1.3786948E0,2.447043E0,6.2282405E0,3.376274E0,1.7238762E0,2.964775E0,1.2379034E0,5.120541E0,1.9517624E0,4.264062E0,2.6638503E0,8.279316E0,2.7597566E0,5.5696864E0,3.5793746E0,5.023538E0,1.2650945E1,5.735165E0,-8.0727315E-1,5.2887573E0],"categories":[],"categories_nodes":[],"categories_segments":[],"categories_sizes":[],"default_left":[0,0,0,0,0,0,0,0,0,0,0,0,0,0,0,0,0,0,0,0,0,0,0,0,0,0,0,0,0,0,0,0,0,0,0,0,0,0,0,0,0,0,0,0,0,0,0,0,0,0,0,0,0,0,0,0,0,0,0,0,0,0,0,0,0,0,0,0,0,0,0,0,0,0,0,0,0,0,0,0,0,0,0,0,0,0,0,0,0,0,0,0,0,0,0,0,0,0,0,0,0,0,0,0,0,0,0,0,0,0,0,0,0,0,0,0,0,0,0,0,0,0,0,0,0,0,0],"id":2,"left_children":[1,3,5,7,9,11,13,15,17,19,21,23,25,27,29,31,33,35,37,39,41,43,45,47,49,51,53,55,57,59,61,63,65,67,69,71,73,75,77,79,81,83,85,87,89,91,93,95,97,99,101,103,105,107,109,111,113,115,117,119,121,123,125,-1,-1,-1,-1,-1,-1,-1,-1,-1,-1,-1,-1,-1,-1,-1,-1,-1,-1,-1,-1,-1,-1,-1,-1,-1,-1,-1,-1,-1,-1,-1,-1,-1,-1,-1,-1,-1,-1,-1,-1,-1,-1,-1,-1,-1,-1,-1,-1,-1,-1,-1,-1,-1,-1,-1,-1,-1,-1,-1,-1,-1,-1,-1,-1],"loss_changes":[3.3334356E5,1.0541544E5,9.9253125E4,4.558601E4,8.608064E4,6.673005E4,2.5003297E4,1.6605344E4,3.1520934E4,1.6091375E4,1.6218592E4,1.9022973E4,3.3284406E4,3.6479688E3,3.8657578E3,1.6415783E4,2.925018E3,3.3134152E4,1.8233281E4,2.2728594E3,1.6231416E3,4.0849312E3,2.597539E3,2.1036625E4,3.98025E3,1.3386266E4,2.328075E4,2.4377656E3,1.3166172E3,3.0204062E3,5.4930273E2,6.122574E3,6.123426E3,1.2737924E3,1.857043E3,1.6307934E4,1.1258609E4,1.1280988E4,8.0413984E3,8.71625E2,1.3782031E3,1.3529609E3,6.986876E2,7.3755237E2,2.9028408E3,1.00883545E3,1.5177461E3,6.966336E3,8.8885E3,2.3089688E3,2.057793E3,2.2441624E3,9.386629E3,9.079344E3,7.3755938E3,2.1045977E3,8.1605664E2,1.6208555E3,1.3020703E3,1.7906328E3,2.0683828E3,9.165205E2,4.2677344E2,0E0,0E0,0E0,0E0,0E0,0E0,0E0,0E0,0E0,0E0,0E0,0E0,0E0,0E0,0E0,0E0,0E0,0E0,0E0,0E0,0E0,0E0,0E0,0E0,0E0,0E0,0E0,0E0,0E0,0E0,0E0,0E0,0E0,0E0,0E0,0E0,0E0,0E0,0E0,0E0,0E0,0E0,0E0,0E0,0E0,0E0,0E0,0E0,0E0,0E0,0E0,0E0,0E0,0E0,0E0,0E0,0E0,0E0,0E0,0E0,0E0,0E0,0E0,0E0],"parents":[2147483647,0,0,1,1,2,2,3,3,4,4,5,5,6,6,7,7,8,8,9,9,10,10,11,11,12,12,13,13,14,14,15,15,16,16,17,17,18,18,19,19,20,20,21,21,22,22,23,23,24,24,25,25,26,26,27,27,28,28,29,29,30,30,31,31,32,32,33,33,34,34,35,35,36,36,37,37,38,38,39,39,40,40,41,41,42,42,43,43,44,44,45,45,46,46,47,47,48,48,49,49,50,50,51,51,52,52,53,53,54,54,55,55,56,56,57,57,58,58,59,59,60,60,61,61,62,62],"right_children":[2,4,6,8,10,12,14,16,18,20,22,24,26,28,30,32,34,36,38,40,42,44,46,48,50,52,54,56,58,60,62,64,66,68,70,72,74,76,78,80,82,84,86,88,90,92,94,96,98,100,102,104,106,108,110,112,114,116,118,120,122,124,126,-1,-1,-1,-1,-1,-1,-1,-1,-1,-1,-1,-1,-1,-1,-1,-1,-1,-1,-1,-1,-1,-1,-1,-1,-1,-1,-1,-1,-1,-1,-1,-1,-1,-1,-1,-1,-1,-1,-1,-1,-1,-1,-1,-1,-1,-1,-1,-1,-1,-1,-1,-1,-1,-1,-1,-1,-1,-1,-1,-1,-1,-1,-1,-1],"split_conditions":[1E0,1E0,2.5E1,3E0,1.6E1,1E0,3.6E1,2E0,2E0,9E0,2.8E1,1.4E1,5E0,3E1,1E0,1E0,3E0,1.8E1,3E0,1E0,1E0,2E1,3.1E1,1E0,1E0,1E0,4E0,1E0,1E0,3.9E1,1E0,3E0,1E0,1E0,1E0,1E0,2.9E1,1E0,1E0,1E0,1E0,1.3E1,1E0,1E0,1E0,1E0,1E0,2E0,1E0,2.1E1,2.2E1,1E0,5E0,2E0,1E0,1E0,1E0,1E0,1E0,1E0,1E0,1E0,1E0,-2.6742387E-1,1.794674E-1,-1.7230229E-3,4.4149312E-1,8.303276E-2,1.3026347E0,1.3432725E-1,5.4211736E-1,1.0207357E-2,4.5524058E-1,5.981243E-1,1.6978266E0,4.5851982E-1,1.2098382E0,1.9372925E0,5.824669E0,-5.577725E-1,-4.0050206E-1,-4.4734055E-1,-2.8238955E-1,-2.4819328E-1,-9.9081896E-2,8.1281453E-1,4.8824368E0,5.5302326E-2,9.43691E-1,3.5622323E-1,2.2455482E0,7.2561526E-1,2.6642509E0,1.9167261E0,1.1532832E0,3.4529988E-2,6.5016186E-1,3.9173493E-1,1.0473298E0,9.7275835E-1,1.644871E0,5.880257E-1,1.0307833E0,3.577437E-2,6.2004715E-1,1.1752449E0,3.536309E0,1.3786948E0,2.447043E0,6.2282405E0,3.376274E0,1.7238762E0,2.964775E0,1.2379034E0,5.120541E0,1.9517624E0,4.264062E0,2.6638503E0,8.279316E0,2.7597566E0,5.5696864E0,3.5793746E0,5.023538E0,1.2650945E1,5.735165E0,-8.0727315E-1,5.2887573E0],"split_indices":[20,23,7,7,7,6,7,8,3,7,7,7,7,7,19,0,8,7,6,7,19,7,7,0,34,15,3,26,38,7,31,3,11,28,7,6,7,11,11,12,0,7,28,39,19,35,26,12,15,7,7,9,3,15,34,31,18,30,19,35,27,22,22,0,0,0,0,0,0,0,0,0,0,0,0,0,0,0,0,0,0,0,0,0,0,0,0,0,0,0,0,0,0,0,0,0,0,0,0,0,0,0,0,0,0,0,0,0,0,0,0,0,0,0,0,0,0,0,0,0,0,0,0,0,0,0,0],"split_type":[0,0,0,0,0,0,0,0,0,0,0,0,0,0,0,0,0,0,0,0,0,0,0,0,0,0,0,0,0,0,0,0,0,0,0,0,0,0,0,0,0,0,0,0,0,0,0,0,0,0,0,0,0,0,0,0,0,0,0,0,0,0,0,0,0,0,0,0,0,0,0,0,0,0,0,0,0,0,0,0,0,0,0,0,0,0,0,0,0,0,0,0,0,0,0,0,0,0,0,0,0,0,0,0,0,0,0,0,0,0,0,0,0,0,0,0,0,0,0,0,0,0,0,0,0,0,0],"sum_hessian":[3.37771E5,2.9286E5,4.4911E4,1.60788E5,1.32072E5,4.0901E4,4.01E3,7.9979E4,8.0809E4,1.14948E5,1.7124E4,3.1946E4,8.955E3,3.238E3,7.72E2,6.879E4,1.1189E4,7.1551E4,9.258E3,9.1025E4,2.3923E4,1.5239E4,1.885E3,2.4273E4,7.673E3,5.52E3,3.435E3,2.012E3,1.226E3,7.55E2,1.7E1,5.4619E4,1.4171E4,6.61E3,4.579E3,6.4244E4,7.307E3,9.059E3,1.99E2,2.7966E4,6.3059E4,2.3816E4,1.07E2,8.132E3,7.107E3,9.17E2,9.68E2,1.6816E4,7.457E3,2.295E3,5.378E3,2.383E3,3.137E3,3.03E3,4.05E2,9.39E2,1.073E3,8.86E2,3.4E2,3.53E2,4.02E2,1.2E1,5E0,5.1705E4,2.914E3,1.0319E4,3.852E3,6.533E3,7.7E1,1.491E3,3.088E3,5.5697E4,8.547E3,6.342E3,9.65E2,6.584E3,2.475E3,1.17E2,8.2E1,2.4304E4,3.662E3,5.8105E4,4.954E3,1.5276E4,8.54E3,1.04E2,3E0,8.048E3,8.4E1,7.034E3,7.3E1,8.93E2,2.4E1,4.19E2,5.49E2,1.4957E4,1.859E3,3.861E3,3.596E3,1.653E3,6.42E2,4.152E3,1.226E3,1.091E3,1.292E3,2.978E3,1.59E2,1.86E3,1.17E3,1.17E2,2.88E2,7.91E2,1.48E2,1.069E3,4E0,8.58E2,2.8E1,3.37E2,3E0,3.31E2,2.2E1,2.38E2,1.64E2,5E0,7E0,1E0,4E0],"tree_param":{"num_deleted":"0","num_feature":"41","num_nodes":"127","size_leaf_vector":"1"}},{"base_weights":[1.1698982E-3,-2.714146E-1,1.7786318E0,-6.655455E-1,2.1028908E-1,1.4735949E0,5.379596E0,-8.54233E-1,7.6863784E-1,-3.6321018E-2,9.763221E-1,1.1606635E0,4.520642E0,4.616745E0,9.655806E0,-9.1127956E-1,4.1441405E-1,3.0247435E-1,1.8675526E0,-1.339512E-1,1.3774575E0,8.064282E-1,3.2219973E0,8.904956E-1,3.2294822E0,4.438865E0,5.625417E1,4.507169E0,1.4259021E1,1.1464773E1,8.084224E0,-1.0716377E0,-5.033329E-1,1.2473972E-2,4.8216E0,6.1685145E-1,2.1803232E-2,1.4898548E0,3.5438144E0,-3.1767786E-1,7.6313436E-1,1.3425524E0,1.5307941E1,7.1136093E-1,5.322743E0,3.0828316E0,3.7639946E1,3.4822935E-1,1.800497E0,2.5088115E0,6.06986E0,3.1928368E0,7.6535463E0,6.2326465E0,2.5442307E1,4.869385E0,2.323165E0,1.11225195E1,1.2574959E1,1.4343158E1,9.149904E0,9.548234E0,4.492715E0,-3.3984154E-1,-8.053509E-2,-1.5292805E-1,1.801528E0,-7.357275E-3,8.897052E0,1.1275578E0,5.760718E0,1.4960474E-1,1.2538816E0,-1.8294656E-4,5.1898015E-1,4.053816E-1,1.681913E0,9.745301E-1,3.113938E0,-1.1240627E-1,5.1151586E-1,1.8924348E-1,1.8023834E0,2.0992753E-1,5.7384515E-1,9.230549E-1,1.2480293E1,1.6191316E-1,6.6233987E-1,2.188505E0,8.174456E-1,8.176437E-1,2.7712069E0,2.3673794E1,4.372354E0,-1.570804E-1,2.8298447E-1,4.9735034E-1,1.4580272E0,6.790594E-1,2.711023E0,1.4103575E0,2.4972858E0,8.17747E-1,2.3960037E0,1.2107971E0,2.9272199E0,1.7320064E0,1.2117336E0,5.358385E-1,3.5945618E0,2.833381E0,7.090462E0,3.1386716E0,5.898645E0,4.221366E0,1.9851961E0,2.6211827E0,4.7469196E0,1.0799085E0,6.5029325E0],"categories":[],"categories_nodes":[],"categories_segments":[],"categories_sizes":[],"default_left":[0,0,0,0,0,0,0,0,0,0,0,0,0,0,0,0,0,0,0,0,0,0,0,0,0,0,0,0,0,0,0,0,0,0,0,0,0,0,0,0,0,0,0,0,0,0,0,0,0,0,0,0,0,0,0,0,0,0,0,0,0,0,0,0,0,0,0,0,0,0,0,0,0,0,0,0,0,0,0,0,0,0,0,0,0,0,0,0,0,0,0,0,0,0,0,0,0,0,0,0,0,0,0,0,0,0,0,0,0,0,0,0,0,0,0,0,0,0,0,0,0],"id":3,"left_children":[1,3,5,7,9,11,13,15,17,19,21,23,25,27,29,31,33,35,37,39,41,43,45,47,49,51,53,55,57,59,61,63,65,67,69,71,73,75,77,79,81,83,85,87,89,91,93,95,97,99,101,103,105,-1,-1,107,109,111,-1,113,115,117,119,-1,-1,-1,-1,-1,-1,-1,-1,-1,-1,-1,-1,-1,-1,-1,-1,-1,-1,-1,-1,-1,-1,-1,-1,-1,-1,-1,-1,-1,-1,-1,-1,-1,-1,-1,-1,-1,-1,-1,-1,-1,-1,-1,-1,-1,-1,-1,-1,-1,-1,-1,-1,-1,-1,-1,-1,-1,-1],"loss_changes":[1.636539E5,5.5601062E4,4.932464E4,4.358875E4,2.4896682E4,3.9476062E4,1.1395648E4,1.0302156E4,9.593302E3,1.376097E4,1.2242498E4,2.0985438E4,1.6063461E4,3.0821797E3,1.4140742E3,8.910641E3,1.0851687E4,1.1603857E3,3.5262676E3,1.5370725E4,3.1108643E3,1.2807695E4,1.0694533E4,1.6389748E4,8.862508E3,1.540107E4,4.316326E3,2.3192148E3,2.3964604E3,1.4945527E3,1.4661504E3,4.803617E3,1.610998E3,6.159196E3,7.755206E3,2.6094219E3,2.6603946E2,2.5903896E3,2.0359795E3,8.926615E3,1.0998316E4,2.3538271E3,5.0174805E3,7.505664E3,3.1312695E3,4.921131E3,7.4176406E3,1.0798479E4,5.405293E3,5.521205E3,2.6669023E3,6.1953477E3,8.1422344E3,0E0,0E0,1.8725469E3,2.1623604E3,4.2761304E2,0E0,2.0030469E3,1.6268691E3,8.947422E2,1.2263312E3,0E0,0E0,0E0,0E0,0E0,0E0,0E0,0E0,0E0,0E0,0E0,0E0,0E0,0E0,0E0,0E0,0E0,0E0,0E0,0E0,0E0,0E0,0E0,0E0,0E0,0E0,0E0,0E0,0E0,0E0,0E0,0E0,0E0,0E0,0E0,0E0,0E0,0E0,0E0,0E0,0E0,0E0,0E0,0E0,0E0,0E0,0E0,0E0,0E0,0E0,0E0,0E0,0E0,0E0,0E0,0E0,0E0,0E0],"parents":[2147483647,0,0,1,1,2,2,3,3,4,4,5,5,6,6,7,7,8,8,9,9,10,10,11,11,12,12,13,13,14,14,15,15,16,16,17,17,18,18,19,19,20,20,21,21,22,22,23,23,24,24,25,25,26,26,27,27,28,28,29,29,30,30,31,31,32,32,33,33,34,34,35,35,36,36,37,37,38,38,39,39,40,40,41,41,42,42,43,43,44,44,45,45,46,46,47,47,48,48,49,49,50,50,51,51,52,52,55,55,56,56,57,57,59,59,60,60,61,61,62,62],"right_children":[2,4,6,8,10,12,14,16,18,20,22,24,26,28,30,32,34,36,38,40,42,44,46,48,50,52,54,56,58,60,62,64,66,68,70,72,74,76,78,80,82,84,86,88,90,92,94,96,98,100,102,104,106,-1,-1,108,110,112,-1,114,116,118,120,-1,-1,-1,-1,-1,-1,-1,-1,-1,-1,-1,-1,-1,-1,-1,-1,-1,-1,-1,-1,-1,-1,-1,-1,-1,-1,-1,-1,-1,-1,-1,-1,-1,-1,-1,-1,-1,-1,-1,-1,-1,-1,-1,-1,-1,-1,-1,-1,-1,-1,-1,-1,-1,-1,-1,-1,-1,-1],"split_conditions":[1E0,1E0,2.6E1,1.6E1,6E0,1E0,3.8E1,1E0,2.3E1,3E0,1E0,2E0,6E0,1E0,1E0,7E0,1E0,1E0,3.1E1,1E0,5E0,1E0,5E0,9E0,2E0,2E0,3E0,1E0,1E0,1E0,1E0,2E0,4E0,6E0,2E0,1E0,1E0,1E0,1E0,4E0,3E0,2E0,2E0,2.2E1,1E0,3E0,1E0,2E0,1E0,3E0,2E0,9E0,1E0,6.2326465E0,2.5442307E1,1E0,1E0,1E0,1.2574959E1,1E0,1E0,1E0,1E0,-3.3984154E-1,-8.053509E-2,-1.5292805E-1,1.801528E0,-7.357275E-3,8.897052E0,1.1275578E0,5.760718E0,1.4960474E-1,1.2538816E0,-1.8294656E-4,5.1898015E-1,4.053816E-1,1.681913E0,9.745301E-1,3.113938E0,-1.1240627E-1,5.1151586E-1,1.8924348E-1,1.8023834E0,2.0992753E-1,5.7384515E-1,9.230549E-1,1.2480293E1,1.6191316E-1,6.6233987E-1,2.188505E0,8.174456E-1,8.176437E-1,2.7712069E0,2.3673794E1,4.372354E0,-1.570804E-1,2.8298447E-1,4.9735034E-1,1.4580272E0,6.790594E-1,2.711023E0,1.4103575E0,2.4972858E0,8.17747E-1,2.3960037E0,1.2107971E0,2.9272199E0,1.7320064E0,1.2117336E0,5.358385E-1,3.5945618E0,2.833381E0,7.090462E0,3.1386716E0,5.898645E0,4.221366E0,1.9851961E0,2.6211827E0,4.7469196E0,1.0799085E0,6.5029325E0],"split_indices":[20,22,7,7,7,16,7,21,7,8,16,9,6,19,26,7,14,26,7,11,12,19,0,7,0,3,1,40,25,34,23,3,3,3,6,21,18,21,19,3,0,7,10,7,26,6,4,1,0,6,15,7,15,0,0,26,24,24,0,37,32,29,36,0,0,0,0,0,0,0,0,0,0,0,0,0,0,0,0,0,0,0,0,0,0,0,0,0,0,0,0,0,0,0,0,0,0,0,0,0,0,0,0,0,0,0,0,0,0,0,0,0,0,0,0,0,0,0,0,0,0],"split_type":[0,0,0,0,0,0,0,0,0,0,0,0,0,0,0,0,0,0,0,0,0,0,0,0,0,0,0,0,0,0,0,0,0,0,0,0,0,0,0,0,0,0,0,0,0,0,0,0,0,0,0,0,0,0,0,0,0,0,0,0,0,0,0,0,0,0,0,0,0,0,0,0,0,0,0,0,0,0,0,0,0,0,0,0,0,0,0,0,0,0,0,0,0,0,0,0,0,0,0,0,0,0,0,0,0,0,0,0,0,0,0,0,0,0,0,0,0,0,0,0,0],"sum_hessian":[3.37771E5,2.9286E5,4.4911E4,1.61071E5,1.31789E5,4.1405E4,3.506E3,1.42344E5,1.8727E4,9.9695E4,3.2094E4,3.755E4,3.855E3,2.977E3,5.29E2,1.36219E5,6.125E3,1.315E4,5.577E3,9.3256E4,6.439E3,2.9838E4,2.256E3,3.3214E4,4.336E3,3.85E3,5E0,2.945E3,3.2E1,2.43E2,2.86E2,9.7781E4,3.8438E4,5.614E3,5.11E2,6.202E3,6.948E3,4.553E3,1.024E3,7.7404E4,1.5852E4,6.424E3,1.5E1,2.9224E4,6.14E2,2.248E3,8E0,2.0813E4,1.2401E4,3.46E3,8.76E2,2.776E3,1.074E3,3E0,2E0,2.525E3,4.2E2,3E1,2E0,1.06E2,1.37E2,2.02E2,8.4E1,9.0861E4,6.92E3,3.8401E4,3.7E1,5.608E3,6E0,4.77E2,3.4E1,6.004E3,1.98E2,6.859E3,8.9E1,4.406E3,1.47E2,9.83E2,4.1E1,7.5283E4,2.121E3,1.5463E4,3.89E2,3.021E3,3.403E3,1.1E1,4E0,2.6218E4,3.006E3,3.48E2,2.66E2,2.126E3,1.22E2,2E0,6E0,8.443E3,1.237E4,1.185E4,5.51E2,3.336E3,1.24E2,5.47E2,3.29E2,2.531E3,2.45E2,3.96E2,6.78E2,1.206E3,1.319E3,3.99E2,2.1E1,2.8E1,2E0,6.3E1,4.3E1,4.5E1,9.2E1,1.81E2,2.1E1,8.1E1,3E0],"tree_param":{"num_deleted":"0","num_feature":"41","num_nodes":"121","size_leaf_vector":"1"}},{"base_weights":[1.3676082E-3,-1.8972677E-1,1.2474508E0,-3.1158334E-1,5.9927297E-1,1.0937629E0,5.1015086E0,-4.7025734E-1,5.2581334E-1,3.255703E-1,2.0347424E0,8.5561454E-1,3.6519742E0,4.9289627E0,1.5750988E1,-7.014346E-1,-1.5791702E-1,4.5315307E-1,4.45301E0,1.8961166E-1,2.1475112E0,1.2035801E0,4.441784E0,5.34677E-2,1.3462312E0,2.803069E0,6.9623623E0,4.316422E0,6.8835506E0,2.1484103E0,1.8023245E1,-8.2474923E-1,-4.7386965E-1,-2.9684615E-1,7.085765E-1,3.2398602E-1,2.0814946E0,3.9533587E0,1.6910168E1,-1.689133E-1,6.0722685E-1,1.7965306E0,6.3953495E0,4.4960752E-1,1.786298E0,2.1861625E0,9.415971E0,-1.1220932E-1,3.1529293E0,1.2281054E0,6.8603644E0,2.5079432E0,7.700207E0,6.612535E0,4.3149395E1,4.093796E0,7.8304367E0,6.503182E0,1.9847301E1,-1.4264593E0,5.062945E0,2.4121387E1,1.2380053E1,-2.7588332E-1,-1.39559E-1,-1.4455675E-1,1.057138E0,-1.15380414E-1,1.4355785E-1,1.363605E-1,5.3468704E-1,7.13037E-2,4.2672792E-1,5.1768816E-1,1.6120372E0,1.0496699E0,3.9387965E0,1.5491923E0,6.66071E0,-1.0002549E-1,4.268621E-2,1.7229041E-1,2.9087017E0,4.7026417E-1,1.8345436E0,9.4862527E-1,3.8929732E0,1.1182404E-1,1.5303589E0,4.950561E-1,2.1659546E0,5.6132215E-1,2.7335868E0,2.2619596E0,7.4523244E0,-1.0867981E-1,4.7213903E-1,5.8708173E-1,1.7129391E0,3.48212E-1,1.9649566E0,1.8305289E0,7.587823E0,6.0263497E-1,1.4308933E0,2.0276146E0,5.765841E0,1.8582379E0,6.6756396E0,2.8173935E0,1.4163157E1,1.1446345E0,2.0596077E0,4.2387686E0,2.4278988E-1,1.6171781E0,2.3575041E0,1.9142449E0,7.9892673E0,1.872526E0,2.2897798E-1,8.370105E0,-1.4833887E0,2.4674447E0,5.464355E0],"categories":[],"categories_nodes":[],"categories_segments":[],"categories_sizes":[],"default_left":[0,0,0,0,0,0,0,0,0,0,0,0,0,0,0,0,0,0,0,0,0,0,0,0,0,0,0,0,0,0,0,0,0,0,0,0,0,0,0,0,0,0,0,0,0,0,0,0,0,0,0,0,0,0,0,0,0,0,0,0,0,0,0,0,0,0,0,0,0,0,0,0,0,0,0,0,0,0,0,0,0,0,0,0,0,0,0,0,0,0,0,0,0,0,0,0,0,0,0,0,0,0,0,0,0,0,0,0,0,0,0,0,0,0,0,0,0,0,0,0,0,0,0,0,0],"id":4,"left_children":[1,3,5,7,9,11,13,15,17,19,21,23,25,27,29,31,33,35,37,39,41,43,45,47,49,51,53,55,57,59,61,63,65,67,69,71,73,75,77,79,81,83,85,87,89,91,93,95,97,99,101,103,105,107,109,111,113,115,117,-1,119,121,123,-1,-1,-1,-1,-1,-1,-1,-1,-1,-1,-1,-1,-1,-1,-1,-1,-1,-1,-1,-1,-1,-1,-1,-1,-1,-1,-1,-1,-1,-1,-1,-1,-1,-1,-1,-1,-1,-1,-1,-1,-1,-1,-1,-1,-1,-1,-1,-1,-1,-1,-1,-1,-1,-1,-1,-1,-1,-1,-1,-1,-1,-1],"loss_changes":[8.0430336E4,2.8157252E4,2.659679E4,3.3707758E4,1.5392838E4,2.63103E4,3.0865742E3,1.5399336E4,1.1529599E4,8.1509395E3,1.2546678E4,1.5550531E4,1.0316426E4,2.0008477E3,7.958091E2,3.4388633E3,1.0920348E4,8.344932E3,4.5017373E3,4.5851455E3,3.3952383E3,2.0487798E3,1.8043426E4,7.7014565E3,1.5961664E4,4.2138906E3,9.209082E3,9.8025586E2,1.858123E3,1.2467278E2,4.92875E2,2.7106328E3,1.3769102E3,5.319715E3,3.418335E3,3.4850027E3,3.4068281E3,2.9023242E3,1.625916E3,8.436232E2,4.2275044E3,2.0789526E3,3.6614878E3,7.256609E2,1.9338867E3,2.4030547E3,1.4340156E4,6.002847E3,2.3159556E3,8.60248E3,7.0328457E3,3.1108398E3,1.6704199E3,4.730711E3,5.1630176E2,9.142129E2,3.349641E3,5.5018164E2,8.3493555E2,0E0,1.5509933E1,1.2363506E3,1.8959912E2,0E0,0E0,0E0,0E0,0E0,0E0,0E0,0E0,0E0,0E0,0E0,0E0,0E0,0E0,0E0,0E0,0E0,0E0,0E0,0E0,0E0,0E0,0E0,0E0,0E0,0E0,0E0,0E0,0E0,0E0,0E0,0E0,0E0,0E0,0E0,0E0,0E0,0E0,0E0,0E0,0E0,0E0,0E0,0E0,0E0,0E0,0E0,0E0,0E0,0E0,0E0,0E0,0E0,0E0,0E0,0E0,0E0,0E0,0E0,0E0,0E0,0E0],"parents":[2147483647,0,0,1,1,2,2,3,3,4,4,5,5,6,6,7,7,8,8,9,9,10,10,11,11,12,12,13,13,14,14,15,15,16,16,17,17,18,18,19,19,20,20,21,21,22,22,23,23,24,24,25,25,26,26,27,27,28,28,29,29,30,30,31,31,32,32,33,33,34,34,35,35,36,36,37,37,38,38,39,39,40,40,41,41,42,42,43,43,44,44,45,45,46,46,47,47,48,48,49,49,50,50,51,51,52,52,53,53,54,54,55,55,56,56,57,57,58,58,60,60,61,61,62,62],"right_children":[2,4,6,8,10,12,14,16,18,20,22,24,26,28,30,32,34,36,38,40,42,44,46,48,50,52,54,56,58,60,62,64,66,68,70,72,74,76,78,80,82,84,86,88,90,92,94,96,98,100,102,104,106,108,110,112,114,116,118,-1,120,122,124,-1,-1,-1,-1,-1,-1,-1,-1,-1,-1,-1,-1,-1,-1,-1,-1,-1,-1,-1,-1,-1,-1,-1,-1,-1,-1,-1,-1,-1,-1,-1,-1,-1,-1,-1,-1,-1,-1,-1,-1,-1,-1,-1,-1,-1,-1,-1,-1,-1,-1,-1,-1,-1,-1,-1,-1,-1,-1,-1,-1,-1,-1],"split_conditions":[1E0,1E0,3.1E1,1.3E1,1E0,2E0,1E0,1E0,1E0,2E0,1E0,4E0,3E0,3.9E1,3.3E1,5E0,2E0,2.8E1,1E0,1E0,2E0,2E0,1E0,3E0,4E0,3E0,6E0,1E0,1E0,1E0,1E0,1E0,4E0,1E0,4E0,1E0,3.8E1,1E0,2.2E1,1E0,5E0,4E0,2E0,3E0,4E0,3E0,2E0,6E0,1E0,4E0,4E0,1E0,6E0,8E0,1E0,1E0,1E0,1E0,1E0,-1.4264593E0,3.2E1,1E0,1E0,-2.7588332E-1,-1.39559E-1,-1.4455675E-1,1.057138E0,-1.15380414E-1,1.4355785E-1,1.363605E-1,5.3468704E-1,7.13037E-2,4.2672792E-1,5.1768816E-1,1.6120372E0,1.0496699E0,3.9387965E0,1.5491923E0,6.66071E0,-1.0002549E-1,4.268621E-2,1.7229041E-1,2.9087017E0,4.7026417E-1,1.8345436E0,9.4862527E-1,3.8929732E0,1.1182404E-1,1.5303589E0,4.950561E-1,2.1659546E0,5.6132215E-1,2.7335868E0,2.2619596E0,7.4523244E0,-1.0867981E-1,4.7213903E-1,5.8708173E-1,1.7129391E0,3.48212E-1,1.9649566E0,1.8305289E0,7.587823E0,6.0263497E-1,1.4308933E0,2.0276146E0,5.765841E0,1.8582379E0,6.6756396E0,2.8173935E0,1.4163157E1,1.1446345E0,2.0596077E0,4.2387686E0,2.4278988E-1,1.6171781E0,2.3575041E0,1.9142449E0,7.9892673E0,1.872526E0,2.2897798E-1,8.370105E0,-1.4833887E0,2.4674447E0,5.464355E0],"split_indices":[20,0,7,7,16,0,19,22,19,15,11,7,0,7,7,7,8,7,18,9,6,4,14,12,3,6,15,25,30,22,22,3,3,16,8,35,7,25,7,12,12,15,0,15,9,6,15,1,6,12,6,16,4,3,9,39,17,37,27,0,7,29,17,0,0,0,0,0,0,0,0,0,0,0,0,0,0,0,0,0,0,0,0,0,0,0,0,0,0,0,0,0,0,0,0,0,0,0,0,0,0,0,0,0,0,0,0,0,0,0,0,0,0,0,0,0,0,0,0,0,0,0,0,0,0],"split_type":[0,0,0,0,0,0,0,0,0,0,0,0,0,0,0,0,0,0,0,0,0,0,0,0,0,0,0,0,0,0,0,0,0,0,0,0,0,0,0,0,0,0,0,0,0,0,0,0,0,0,0,0,0,0,0,0,0,0,0,0,0,0,0,0,0,0,0,0,0,0,0,0,0,0,0,0,0,0,0,0,0,0,0,0,0,0,0,0,0,0,0,0,0,0,0,0,0,0,0,0,0,0,0,0,0,0,0,0,0,0,0,0,0,0,0,0,0,0,0,0,0,0,0,0,0],"sum_hessian":[3.37771E5,2.9286E5,4.4911E4,2.53681E5,3.9179E4,4.319E4,1.721E3,2.1327E5,4.0411E4,3.2906E4,6.273E3,3.9513E4,3.677E3,1.695E3,2.6E1,1.22558E5,9.0712E4,3.9678E4,7.33E2,3.0622E4,2.284E3,4.664E3,1.609E3,1.4996E4,2.4517E4,2.928E3,7.49E2,1.293E3,4.02E2,4E0,2.2E1,7.9484E4,4.3074E4,7.8178E4,1.2534E4,3.6763E4,2.915E3,7.06E2,2.7E1,1.6477E4,1.4145E4,2.111E3,1.73E2,2.034E3,2.63E3,1.108E3,5.01E2,1.4236E4,7.6E2,2.4004E4,5.13E2,2.763E3,1.65E2,7.43E2,6E0,1.218E3,7.5E1,3.92E2,1E1,1E0,3E0,9E0,1.3E1,6.289E4,1.6594E4,4.2989E4,8.5E1,7.023E4,7.948E3,1.0137E4,2.397E3,3.4086E4,2.677E3,2.632E3,2.83E2,6.74E2,3.2E1,9E0,1.8E1,1.0779E4,5.698E3,1.4095E4,5E1,2.006E3,1.05E2,1.17E2,5.6E1,2.002E3,3.2E1,2.567E3,6.3E1,1.061E3,4.7E1,4.48E2,5.3E1,1.2398E4,1.838E3,5.19E2,2.41E2,2.3705E4,2.99E2,4.94E2,1.9E1,2.265E3,4.98E2,1.54E2,1.1E1,7.25E2,1.8E1,1E0,5E0,1.109E3,1.09E2,3.9E1,3.6E1,2.18E2,1.74E2,4E0,6E0,2E0,1E0,8E0,1E0,9E0,4E0],"tree_param":{"num_deleted":"0","num_feature":"41","num_nodes":"125","size_leaf_vector":"1"}},{"base_weights":[1.3460397E-3,-7.479106E-2,1.6726476E0,-1.7593227E-1,1.3597378E0,1.4804738E0,8.512169E0,-2.3578209E-1,1.1502752E0,1.1340863E0,3.663092E0,1.1622047E0,4.594893E0,5.948353E0,1.4347579E1,-2.938823E-1,5.9152704E-1,5.2208704E-1,2.7036963E0,9.5490116E-1,3.2180383E0,3.3859491E0,9.192961E0,7.752221E-1,2.6697297E0,4.275391E0,2.2523363E1,5.444582E0,3.947333E1,6.203014E0,2.0309214E1,-4.1499296E-1,6.0556475E-2,3.276879E-1,1.3921889E0,1.5553825E-1,1.2645755E0,2.0885189E0,5.3228207E0,1.5386808E0,4.8644876E-1,5.2394824E0,2.423404E0,4.441101E0,2.5672412E0,7.208213E0,3.169665E1,6.6720974E-1,6.1645737E0,1.2727112E0,3.880042E0,2.6598523E0,5.6338897E0,8.744773E0,3.956105E1,3.186209E0,9.310144E0,1.419281E1,2.3947847E0,4.5836663E0,9.499274E0,2.7464186E1,1.1454723E1,-1.3698971E-1,1.7422569E-1,-4.081344E-2,1.4331922E-1,9.686622E-2,6.9067173E0,3.9707473E-1,7.272481E0,-4.196874E-3,3.9433777E-1,2.8552E-1,8.723783E-1,4.8675552E-1,1.2276033E0,8.4867644E-1,2.4014354E0,4.3721798E-1,2.6591928E0,6.294273E-2,3.5994524E-1,1.92113E0,3.6182052E-1,3.2866123E-1,8.707136E-1,1.8959666E0,9.8452795E-1,6.830338E-1,3.1354058E0,2.517856E0,3.5980392E-1,1.1581696E1,-1.4636055E0,1.613358E-1,1.1302782E0,1.444915E0,2.160989E1,2.80339E-1,1.1016388E0,1.1205171E0,7.86348E0,7.125752E-1,3.2298236E0,1.6547887E0,9.452475E0,-3.7859335E0,4.7156167E0,3.9244096E0,1.6510185E1,7.488833E-1,5.2346926E0,1.9460357E0,6.1684747E0,9.123397E-1,2.974925E0,4.34019E0,1.233043E1,9.81478E-1,4.619274E0],"categories":[],"categories_nodes":[],"categories_segments":[],"categories_sizes":[],"default_left":[0,0,0,0,0,0,0,0,0,0,0,0,0,0,0,0,0,0,0,0,0,0,0,0,0,0,0,0,0,0,0,0,0,0,0,0,0,0,0,0,0,0,0,0,0,0,0,0,0,0,0,0,0,0,0,0,0,0,0,0,0,0,0,0,0,0,0,0,0,0,0,0,0,0,0,0,0,0,0,0,0,0,0,0,0,0,0,0,0,0,0,0,0,0,0,0,0,0,0,0,0,0,0,0,0,0,0,0,0,0,0,0,0,0,0,0,0,0,0,0,0],"id":5,"left_children":[1,3,5,7,9,11,13,15,17,19,21,23,25,27,29,31,33,35,37,39,41,43,45,47,49,51,53,55,57,59,61,63,65,67,69,71,73,75,77,79,81,83,85,87,89,91,93,95,97,99,101,103,105,107,109,111,113,-1,-1,115,-1,117,119,-1,-1,-1,-1,-1,-1,-1,-1,-1,-1,-1,-1,-1,-1,-1,-1,-1,-1,-1,-1,-1,-1,-1,-1,-1,-1,-1,-1,-1,-1,-1,-1,-1,-1,-1,-1,-1,-1,-1,-1,-1,-1,-1,-1,-1,-1,-1,-1,-1,-1,-1,-1,-1,-1,-1,-1,-1,-1],"loss_changes":[4.298095E4,4.687243E4,1.9331078E4,2.3953537E4,1.105468E4,1.4185012E4,5.9289453E3,1.3879478E4,1.271477E4,7.233674E3,2.8776797E3,7.5761113E3,7.504994E3,4.530865E3,5.7977207E3,1.158167E4,4.002232E3,2.5254314E3,6.034205E3,4.879926E3,2.451379E3,1.5513242E3,3.7912969E3,6.0138105E3,4.48083E3,2.8491074E3,5.05342E3,2.3972441E3,6.09397E2,2.0400826E3,4.120158E3,8.337953E3,5.6356978E3,1.5453695E3,7.3294434E3,1.2208789E3,1.5740073E3,2.8315908E3,4.746291E3,4.7179766E3,1.9540664E3,2.0209658E3,6.9834375E2,1.6978242E3,2.3143276E3,5.87875E2,1.9572383E3,4.0651816E3,1.7680102E4,9.9726904E2,4.5029336E3,1.3540405E3,1.9865254E3,2.2843008E3,3.377255E3,1.6981805E3,3.1068398E3,0E0,0E0,3.893662E2,0E0,6.1405605E3,1.0143672E3,0E0,0E0,0E0,0E0,0E0,0E0,0E0,0E0,0E0,0E0,0E0,0E0,0E0,0E0,0E0,0E0,0E0,0E0,0E0,0E0,0E0,0E0,0E0,0E0,0E0,0E0,0E0,0E0,0E0,0E0,0E0,0E0,0E0,0E0,0E0,0E0,0E0,0E0,0E0,0E0,0E0,0E0,0E0,0E0,0E0,0E0,0E0,0E0,0E0,0E0,0E0,0E0,0E0,0E0,0E0,0E0,0E0,0E0],"parents":[2147483647,0,0,1,1,2,2,3,3,4,4,5,5,6,6,7,7,8,8,9,9,10,10,11,11,12,12,13,13,14,14,15,15,16,16,17,17,18,18,19,19,20,20,21,21,22,22,23,23,24,24,25,25,26,26,27,27,28,28,29,29,30,30,31,31,32,32,33,33,34,34,35,35,36,36,37,37,38,38,39,39,40,40,41,41,42,42,43,43,44,44,45,45,46,46,47,47,48,48,49,49,50,50,51,51,52,52,53,53,54,54,55,55,56,56,59,59,61,61,62,62],"right_children":[2,4,6,8,10,12,14,16,18,20,22,24,26,28,30,32,34,36,38,40,42,44,46,48,50,52,54,56,58,60,62,64,66,68,70,72,74,76,78,80,82,84,86,88,90,92,94,96,98,100,102,104,106,108,110,112,114,-1,-1,116,-1,118,120,-1,-1,-1,-1,-1,-1,-1,-1,-1,-1,-1,-1,-1,-1,-1,-1,-1,-1,-1,-1,-1,-1,-1,-1,-1,-1,-1,-1,-1,-1,-1,-1,-1,-1,-1,-1,-1,-1,-1,-1,-1,-1,-1,-1,-1,-1,-1,-1,-1,-1,-1,-1,-1,-1,-1,-1,-1,-1],"split_conditions":[2E0,2E1,3E0,3E0,3.4E1,4E0,1E0,2E0,4E0,1E0,1E0,2E0,4E0,6E0,1E0,8E0,1E0,1E0,5E0,1E0,1E0,1E0,1E0,4E0,1E0,1E0,2E0,2E0,4E0,8E0,1E0,6E0,1E0,1E1,7E0,3E0,5E0,1E0,1E0,1E0,1E0,1E0,2.2E1,1E0,1E0,1E0,1E0,8E0,3E0,7E0,5E0,4E0,5E0,1E0,1E0,8E0,4E0,1.419281E1,2.3947847E0,4E0,9.499274E0,1E0,1E0,-1.3698971E-1,1.7422569E-1,-4.081344E-2,1.4331922E-1,9.686622E-2,6.9067173E0,3.9707473E-1,7.272481E0,-4.196874E-3,3.9433777E-1,2.8552E-1,8.723783E-1,4.8675552E-1,1.2276033E0,8.4867644E-1,2.4014354E0,4.3721798E-1,2.6591928E0,6.294273E-2,3.5994524E-1,1.92113E0,3.6182052E-1,3.2866123E-1,8.707136E-1,1.8959666E0,9.8452795E-1,6.830338E-1,3.1354058E0,2.517856E0,3.5980392E-1,1.1581696E1,-1.4636055E0,1.613358E-1,1.1302782E0,1.444915E0,2.160989E1,2.80339E-1,1.1016388E0,1.1205171E0,7.86348E0,7.125752E-1,3.2298236E0,1.6547887E0,9.452475E0,-3.7859335E0,4.7156167E0,3.9244096E0,1.6510185E1,7.488833E-1,5.2346926E0,1.9460357E0,6.1684747E0,9.123397E-1,2.974925E0,4.34019E0,1.233043E1,9.81478E-1,4.619274E0],"split_indices":[15,7,0,3,7,15,14,12,7,31,19,3,6,15,11,7,6,5,3,26,34,26,25,12,5,5,12,5,1,3,17,1,22,13,12,4,3,16,6,18,20,26,7,34,39,40,18,1,11,7,6,9,10,3,17,3,0,0,0,0,0,16,32,0,0,0,0,0,0,0,0,0,0,0,0,0,0,0,0,0,0,0,0,0,0,0,0,0,0,0,0,0,0,0,0,0,0,0,0,0,0,0,0,0,0,0,0,0,0,0,0,0,0,0,0,0,0,0,0,0,0],"split_type":[0,0,0,0,0,0,0,0,0,0,0,0,0,0,0,0,0,0,0,0,0,0,0,0,0,0,0,0,0,0,0,0,0,0,0,0,0,0,0,0,0,0,0,0,0,0,0,0,0,0,0,0,0,0,0,0,0,0,0,0,0,0,0,0,0,0,0,0,0,0,0,0,0,0,0,0,0,0,0,0,0,0,0,0,0,0,0,0,0,0,0,0,0,0,0,0,0,0,0,0,0,0,0,0,0,0,0,0,0,0,0,0,0,0,0,0,0,0,0,0,0],"sum_hessian":[3.37771E5,3.23055E5,1.4716E4,3.01779E5,2.1276E4,1.4315E4,4.01E2,2.88749E5,1.303E4,1.9379E4,1.897E3,1.2989E4,1.326E3,2.8E2,1.21E2,2.69802E5,1.8947E4,9.279E3,3.751E3,1.7846E4,1.533E3,1.808E3,8.9E1,1.0337E4,2.652E3,1.304E3,2.2E1,2.77E2,3E0,5.2E1,6.9E1,2.0109E5,6.8712E4,1.4252E4,4.695E3,6.213E3,3.066E3,3.039E3,7.12E2,7.944E3,9.902E3,4.31E2,1.102E3,7.88E2,1.02E3,8.3E1,6E0,1.0135E4,2.02E2,1.232E3,1.42E3,5.97E2,7.07E2,1.3E1,9E0,1.76E2,1.01E2,2E0,1E0,5E1,2E0,3.7E1,3.2E1,1.93019E5,8.071E3,4.6703E4,2.2009E4,1.425E4,2E0,4.682E3,1.3E1,5.421E3,7.92E2,2.577E3,4.89E2,2.467E3,5.72E2,3.7E2,3.42E2,7.858E3,8.6E1,7.136E3,2.766E3,3.34E2,9.7E1,2.93E2,8.09E2,2.99E2,4.89E2,9.85E2,3.5E1,6.9E1,1.4E1,5E0,1E0,9.73E3,4.05E2,1.99E2,3E0,1.081E3,1.51E2,1.412E3,8E0,5.78E2,1.9E1,7.05E2,2E0,3E0,1E1,4E0,5E0,1.69E2,7E0,8.2E1,1.9E1,4E1,1E1,2E1,1.7E1,1.1E1,2.1E1],"tree_param":{"num_deleted":"0","num_feature":"41","num_nodes":"121","size_leaf_vector":"1"}},{"base_weights":[1.4913805E-3,-4.933791E-2,1.5260668E0,-1.1025885E-1,1.1603111E0,1.0237966E0,3.2102594E0,-1.9200075E-1,5.502961E-1,7.145669E-1,1.9394369E0,4.4029057E-1,2.2340202E0,1.1110703E0,5.13032E0,-5.507045E-1,-1.0992793E-1,4.3316066E-1,3.1251793E0,6.4044136E-1,5.344041E0,1.9223944E0,1.486741E1,2.993942E-1,3.3336883E0,2.0008614E0,7.878234E0,3.7751874E-1,4.034534E0,3.960369E0,1.1987556E1,-5.642536E-1,1.0212948E0,4.6362724E-2,-3.151426E-1,-6.589841E-3,9.237121E-1,2.9122794E0,2.3880379E1,5.4840696E-1,3.001584E0,4.1044674E0,1.4131234E1,1.8537925E0,8.805833E0,5.2922056E-3,1.2056863E0,1.9710542E0,8.1159115E0,1.852648E0,1.1529125E1,6.6146626E0,2.5164808E1,2.9881668E-1,2.5331396E1,2.7700338E0,7.866813E0,3.746919E0,2.7235977E1,6.9596276E0,1.7156904E1,-1.7237729E-1,3.6565924E-1,2.4004558E-1,1.2072843E0,1.0950068E-3,3.304795E-1,-1.3406841E-1,-3.8863748E-4,-5.6182653E-2,1.9524099E-1,2.7193218E-1,6.939799E0,7.476402E-1,2.679087E0,3.5319939E0,2.0515263E1,2.1681482E-1,-9.781184E-2,4.2591837E-1,1.3727174E0,9.7876567E-1,2.6039612E0,1.0163486E0,5.648738E0,7.4490297E-1,3.908698E-1,2.827222E0,-1.5773307E0,-3.987412E-3,3.7886562E0,7.2820413E-1,4.2771418E-2,3.421666E-1,2.6595607E0,1.9953657E0,5.9104123E0,2.0305568E-1,7.63367E-1,2.1660438E0,8.358758E0,2.2974534E0,-8.1427556E-1,6.660379E-1,1.0169597E1,3.3813767E-2,1.8118423E0,9.675927E0,1.7232016E0,4.4249982E-1,2.5717845E0,3.7114942E0,1.3272927E0,1.4371498E0,4.4388384E-1,-2.2012246E0,1.1038952E1,9.5767707E-1,4.4997106E0,2.3971515E0,6.418507E0],"categories":[],"categories_nodes":[],"categories_segments":[],"categories_sizes":[],"default_left":[0,0,0,0,0,0,0,0,0,0,0,0,0,0,0,0,0,0,0,0,0,0,0,0,0,0,0,0,0,0,0,0,0,0,0,0,0,0,0,0,0,0,0,0,0,0,0,0,0,0,0,0,0,0,0,0,0,0,0,0,0,0,0,0,0,0,0,0,0,0,0,0,0,0,0,0,0,0,0,0,0,0,0,0,0,0,0,0,0,0,0,0,0,0,0,0,0,0,0,0,0,0,0,0,0,0,0,0,0,0,0,0,0,0,0,0,0,0,0,0,0],"id":6,"left_children":[1,3,5,7,9,11,13,15,17,19,21,23,25,27,29,31,33,35,37,39,41,43,-1,45,47,49,51,53,55,57,59,61,63,65,67,69,71,73,75,77,79,81,83,85,87,89,91,93,95,97,99,101,103,105,107,109,111,113,115,117,119,-1,-1,-1,-1,-1,-1,-1,-1,-1,-1,-1,-1,-1,-1,-1,-1,-1,-1,-1,-1,-1,-1,-1,-1,-1,-1,-1,-1,-1,-1,-1,-1,-1,-1,-1,-1,-1,-1,-1,-1,-1,-1,-1,-1,-1,-1,-1,-1,-1,-1,-1,-1,-1,-1,-1,-1,-1,-1,-1,-1],"loss_changes":[2.6175068E4,2.4088512E4,9.215549E3,1.6803518E4,5.441701E3,5.928043E3,1.0082816E4,8.152827E3,1.0334828E4,3.4182476E3,4.532955E3,2.3088555E3,3.5782305E3,2.5654565E3,1.0438105E4,1.098873E3,7.228338E3,7.0713154E3,6.5188555E3,2.1312156E3,1.6521006E3,2.6762559E3,0E0,1.4403884E3,1.697822E3,3.684294E3,2.1925674E3,1.8738671E3,1.1412285E3,5.452381E3,4.8189062E3,9.4306836E2,2.8964325E2,5.7663228E3,4.0289395E3,2.053379E3,5.922615E3,3.712251E3,7.2770537E3,1.4403369E3,9.0984717E2,5.0712354E2,8.95166E2,1.9541934E3,5.3645166E2,9.5753345E2,1.7192195E3,1.1693589E3,8.531714E2,2.1012861E3,2.6140405E3,1.0137422E3,1.3275083E3,1.0206716E3,2.2147192E2,1.3550021E3,8.602307E2,2.6169355E3,3.5753887E3,2.9202876E3,3.4419355E3,0E0,0E0,0E0,0E0,0E0,0E0,0E0,0E0,0E0,0E0,0E0,0E0,0E0,0E0,0E0,0E0,0E0,0E0,0E0,0E0,0E0,0E0,0E0,0E0,0E0,0E0,0E0,0E0,0E0,0E0,0E0,0E0,0E0,0E0,0E0,0E0,0E0,0E0,0E0,0E0,0E0,0E0,0E0,0E0,0E0,0E0,0E0,0E0,0E0,0E0,0E0,0E0,0E0,0E0,0E0,0E0,0E0,0E0,0E0,0E0],"parents":[2147483647,0,0,1,1,2,2,3,3,4,4,5,5,6,6,7,7,8,8,9,9,10,10,11,11,12,12,13,13,14,14,15,15,16,16,17,17,18,18,19,19,20,20,21,21,23,23,24,24,25,25,26,26,27,27,28,28,29,29,30,30,31,31,32,32,33,33,34,34,35,35,36,36,37,37,38,38,39,39,40,40,41,41,42,42,43,43,44,44,45,45,46,46,47,47,48,48,49,49,50,50,51,51,52,52,53,53,54,54,55,55,56,56,57,57,58,58,59,59,60,60],"right_children":[2,4,6,8,10,12,14,16,18,20,22,24,26,28,30,32,34,36,38,40,42,44,-1,46,48,50,52,54,56,58,60,62,64,66,68,70,72,74,76,78,80,82,84,86,88,90,92,94,96,98,100,102,104,106,108,110,112,114,116,118,120,-1,-1,-1,-1,-1,-1,-1,-1,-1,-1,-1,-1,-1,-1,-1,-1,-1,-1,-1,-1,-1,-1,-1,-1,-1,-1,-1,-1,-1,-1,-1,-1,-1,-1,-1,-1,-1,-1,-1,-1,-1,-1,-1,-1,-1,-1,-1,-1,-1,-1,-1,-1,-1,-1,-1,-1,-1,-1,-1,-1],"split_conditions":[2E0,2.2E1,1E0,1E0,1E0,3E0,1E0,1E0,3E0,1E0,2E0,3E0,6E0,4E0,2E0,3E0,1E0,1E0,5E0,1E0,1E0,1E0,1.486741E1,5E0,2E0,4E0,4E0,1E1,3E0,5E0,1E0,7E0,2E0,3E0,1.1E1,1E0,7E0,4E0,3E0,1E0,2.5E1,1E0,1E0,1E0,1E0,7E0,1E0,1E0,1E0,1E0,1E0,2E0,4E0,9E0,1.1E1,3E0,5E0,2E0,1E0,1E0,1E0,-1.7237729E-1,3.6565924E-1,2.4004558E-1,1.2072843E0,1.0950068E-3,3.304795E-1,-1.3406841E-1,-3.8863748E-4,-5.6182653E-2,1.9524099E-1,2.7193218E-1,6.939799E0,7.476402E-1,2.679087E0,3.5319939E0,2.0515263E1,2.1681482E-1,-9.781184E-2,4.2591837E-1,1.3727174E0,9.7876567E-1,2.6039612E0,1.0163486E0,5.648738E0,7.4490297E-1,3.908698E-1,2.827222E0,-1.5773307E0,-3.987412E-3,3.7886562E0,7.2820413E-1,4.2771418E-2,3.421666E-1,2.6595607E0,1.9953657E0,5.9104123E0,2.0305568E-1,7.63367E-1,2.1660438E0,8.358758E0,2.2974534E0,-8.1427556E-1,6.660379E-1,1.0169597E1,3.3813767E-2,1.8118423E0,9.675927E0,1.7232016E0,4.4249982E-1,2.5717845E0,3.7114942E0,1.3272927E0,1.4371498E0,4.4388384E-1,-2.2012246E0,1.1038952E1,9.5767707E-1,4.4997106E0,2.3971515E0,6.418507E0],"split_indices":[0,7,14,6,20,4,11,7,15,18,3,15,3,4,6,11,23,9,6,35,19,19,0,7,6,6,15,3,0,0,12,1,8,8,7,16,12,3,16,40,7,29,27,26,35,8,26,25,35,9,25,11,1,1,3,5,4,11,12,16,3,0,0,0,0,0,0,0,0,0,0,0,0,0,0,0,0,0,0,0,0,0,0,0,0,0,0,0,0,0,0,0,0,0,0,0,0,0,0,0,0,0,0,0,0,0,0,0,0,0,0,0,0,0,0,0,0,0,0,0,0],"split_type":[0,0,0,0,0,0,0,0,0,0,0,0,0,0,0,0,0,0,0,0,0,0,0,0,0,0,0,0,0,0,0,0,0,0,0,0,0,0,0,0,0,0,0,0,0,0,0,0,0,0,0,0,0,0,0,0,0,0,0,0,0,0,0,0,0,0,0,0,0,0,0,0,0,0,0,0,0,0,0,0,0,0,0,0,0,0,0,0,0,0,0,0,0,0,0,0,0,0,0,0,0,0,0,0,0,0,0,0,0,0,0,0,0,0,0,0,0,0,0,0,0],"sum_hessian":[3.37771E5,3.26874E5,1.0897E4,3.11202E5,1.5672E4,8.395E3,2.502E3,2.76933E5,3.4269E4,9.97E3,5.702E3,5.665E3,2.73E3,1.196E3,1.306E3,5.1564E4,2.25369E5,3.2779E4,1.49E3,9.814E3,1.56E2,5.701E3,1E0,5.403E3,2.62E2,2.623E3,1.07E2,9.57E2,2.39E2,1.117E3,1.89E2,5.1124E4,4.4E2,1.27935E5,9.7434E4,1.7285E4,1.5494E4,1.476E3,1.4E1,9.447E3,3.67E2,1.38E2,1.8E1,5.646E3,5.5E1,4.08E3,1.323E3,2.05E2,5.7E1,2.584E3,3.9E1,1.01E2,6E0,9.55E2,2E0,1.81E2,5.8E1,1.108E3,9E0,9.7E1,9.2E1,5.083E4,2.94E2,4.11E2,2.9E1,1.22959E5,4.976E3,6.8625E4,2.8809E4,1.3559E4,3.726E3,1.5483E4,1.1E1,1.381E3,9.5E1,1.2E1,2E0,7.877E3,1.57E3,1.84E2,1.83E2,1.18E2,2E1,6E0,1.2E1,2.634E3,3.012E3,5.3E1,2E0,4.075E3,5E0,6.15E2,7.08E2,1.84E2,2.1E1,5.2E1,5E0,9.58E2,1.626E3,3.2E1,7E0,9.1E1,1E1,2E0,4E0,9.26E2,2.9E1,1E0,1E0,1.49E2,3.2E1,2.4E1,3.4E1,7.58E2,3.5E2,2E0,7E0,6.7E1,3E1,3E1,6.2E1],"tree_param":{"num_deleted":"0","num_feature":"41","num_nodes":"121","size_leaf_vector":"1"}},{"base_weights":[1.492957E-3,-1.5791407E-2,3.0650475E0,-8.046414E-2,5.858415E-1,2.8474553E0,1.990953E1,-1.5837882E-1,5.856846E-1,5.043223E-1,2.524932E0,1.1238492E0,4.0063043E0,3.3651367E1,7.690265E0,-2.1659432E-1,3.3922505E-1,7.12721E-2,1.1374238E0,4.303534E-1,2.8182125E0,3.2173958E0,1.5589433E0,9.357443E-1,1.5025276E1,3.7164905E0,1.5590005E1,4.802925E0,4.3869164E1,1.062726E1,-1.9863412E0,-2.2780807E-1,1.2594268E0,-7.745219E-2,8.186429E-1,6.4912915E-2,1.3121748E1,5.9753823E-1,1.8566049E0,1.9577666E-1,9.4915974E-1,5.041215E0,2.0001857E0,2.910225E0,9.182537E0,4.4414517E-1,3.1843667E0,4.5912892E-1,5.525119E0,2.5392652E0,1.2993865E1,2.396406E0,5.685118E0,9.601119E0,3.495092E1,2.6233897E0,-1.0533291E0,4.604923E0,5.081735E1,7.126373E0,5.62634E0,-8.5034356E-2,1.4538589E-2,3.5588816E-1,2.0167186E0,-9.426916E-2,1.3196357E-1,1.846156E-1,7.440737E-1,-4.868484E-3,2.9027948E-1,7.254952E-1,9.046409E0,1.242392E-1,4.3672508E-1,3.703393E-1,9.657103E-1,1.7095111E-1,-2.5188936E-2,2.821004E-1,1.26373E1,1.7924485E0,6.4453673E-1,5.331714E-1,2.2722363E0,9.403972E-1,-6.2284535E-1,1.9540184E0,1.1178508E1,4.2349008E-1,-7.718143E-1,1.7727151E0,-2.1514986E-1,7.0028966E-3,1.0979954E0,8.0625856E-1,4.4802055E0,1.6961137E0,-1.3608153E0,5.0145656E-1,2.5036502E0,1.1395158E0,2.5416589E0,8.884585E0,1.4646868E0,1.4655547E1,4.736254E0,4.0985084E0,1.6654844E1,2.8114576E0,-3.708472E-1],"categories":[],"categories_nodes":[],"categories_segments":[],"categories_sizes":[],"default_left":[0,0,0,0,0,0,0,0,0,0,0,0,0,0,0,0,0,0,0,0,0,0,0,0,0,0,0,0,0,0,0,0,0,0,0,0,0,0,0,0,0,0,0,0,0,0,0,0,0,0,0,0,0,0,0,0,0,0,0,0,0,0,0,0,0,0,0,0,0,0,0,0,0,0,0,0,0,0,0,0,0,0,0,0,0,0,0,0,0,0,0,0,0,0,0,0,0,0,0,0,0,0,0,0,0,0,0,0,0,0,0],"id":7,"left_children":[1,3,5,7,9,11,13,15,17,19,21,23,25,27,29,31,33,35,37,39,41,43,45,47,49,51,53,55,57,59,-1,61,63,65,67,69,71,73,75,77,79,81,83,85,87,89,91,93,95,97,-1,99,101,103,105,-1,-1,-1,107,109,-1,-1,-1,-1,-1,-1,-1,-1,-1,-1,-1,-1,-1,-1,-1,-1,-1,-1,-1,-1,-1,-1,-1,-1,-1,-1,-1,-1,-1,-1,-1,-1,-1,-1,-1,-1,-1,-1,-1,-1,-1,-1,-1,-1,-1,-1,-1,-1,-1,-1,-1],"loss_changes":[1.7885615E4,1.3068807E4,6.888916E3,1.5741061E4,5.1520645E3,3.734629E3,3.7711758E3,7.8655635E3,9.013522E3,5.353744E3,8.746035E2,1.9575945E3,3.69867E3,3.0317432E3,6.5881976E2,4.0237344E3,5.6811104E3,1.3631787E3,5.9484355E3,3.6896328E3,1.7520195E3,1.3750005E3,9.970082E2,1.6270513E3,3.4220107E3,2.8268164E3,2.7950903E3,1.6178897E2,8.052324E2,2.0777783E2,0E0,3.7084258E3,7.243511E2,1.8639873E3,4.464661E3,1.203357E3,1.3855642E3,1.3772996E3,5.564908E3,2.184922E3,3.390624E3,6.893496E2,8.68854E2,8.2233545E2,2.5303496E3,9.6099036E2,2.3854565E3,9.4285864E2,1.8287661E3,2.0193109E2,0E0,2.8149866E3,2.2710293E3,1.9331653E3,8.27083E2,0E0,0E0,0E0,2.8907715E2,1.9933615E2,0E0,0E0,0E0,0E0,0E0,0E0,0E0,0E0,0E0,0E0,0E0,0E0,0E0,0E0,0E0,0E0,0E0,0E0,0E0,0E0,0E0,0E0,0E0,0E0,0E0,0E0,0E0,0E0,0E0,0E0,0E0,0E0,0E0,0E0,0E0,0E0,0E0,0E0,0E0,0E0,0E0,0E0,0E0,0E0,0E0,0E0,0E0,0E0,0E0,0E0,0E0],"parents":[2147483647,0,0,1,1,2,2,3,3,4,4,5,5,6,6,7,7,8,8,9,9,10,10,11,11,12,12,13,13,14,14,15,15,16,16,17,17,18,18,19,19,20,20,21,21,22,22,23,23,24,24,25,25,26,26,27,27,28,28,29,29,31,31,32,32,33,33,34,34,35,35,36,36,37,37,38,38,39,39,40,40,41,41,42,42,43,43,44,44,45,45,46,46,47,47,48,48,49,49,51,51,52,52,53,53,54,54,58,58,59,59],"right_children":[2,4,6,8,10,12,14,16,18,20,22,24,26,28,30,32,34,36,38,40,42,44,46,48,50,52,54,56,58,60,-1,62,64,66,68,70,72,74,76,78,80,82,84,86,88,90,92,94,96,98,-1,100,102,104,106,-1,-1,-1,108,110,-1,-1,-1,-1,-1,-1,-1,-1,-1,-1,-1,-1,-1,-1,-1,-1,-1,-1,-1,-1,-1,-1,-1,-1,-1,-1,-1,-1,-1,-1,-1,-1,-1,-1,-1,-1,-1,-1,-1,-1,-1,-1,-1,-1,-1,-1,-1,-1,-1,-1,-1],"split_conditions":[3E0,1.7E1,1E0,3E0,3.6E1,1E0,1E0,1E0,1E0,1E0,1E0,1.3E1,5E0,1E0,2E0,8E0,1E0,1E1,1E0,1E0,1E0,1E0,1E0,3E0,1E0,1E0,1E0,1E0,1E0,3E0,-1.9863412E0,1E1,3E0,1E0,1E0,3E0,2E0,5E0,2E0,1E0,3E0,1E0,1E0,1E0,1E0,1E0,1E0,1E0,4E0,3E0,1.2993865E1,9E0,1E0,1E0,2E0,2.6233897E0,-1.0533291E0,4.604923E0,2E0,7E0,5.62634E0,-8.5034356E-2,1.4538589E-2,3.5588816E-1,2.0167186E0,-9.426916E-2,1.3196357E-1,1.846156E-1,7.440737E-1,-4.868484E-3,2.9027948E-1,7.254952E-1,9.046409E0,1.242392E-1,4.3672508E-1,3.703393E-1,9.657103E-1,1.7095111E-1,-2.5188936E-2,2.821004E-1,1.26373E1,1.7924485E0,6.4453673E-1,5.331714E-1,2.2722363E0,9.403972E-1,-6.2284535E-1,1.9540184E0,1.1178508E1,4.2349008E-1,-7.718143E-1,1.7727151E0,-2.1514986E-1,7.0028966E-3,1.0979954E0,8.0625856E-1,4.4802055E0,1.6961137E0,-1.3608153E0,5.0145656E-1,2.5036502E0,1.1395158E0,2.5416589E0,8.884585E0,1.4646868E0,1.4655547E1,4.736254E0,4.0985084E0,1.6654844E1,2.8114576E0,-3.708472E-1],"split_indices":[6,7,21,4,7,3,8,11,9,39,23,7,15,9,11,1,3,13,15,38,34,25,27,12,14,27,29,0,16,8,0,7,0,12,16,5,5,4,3,26,3,23,25,35,19,33,17,14,6,12,0,7,17,8,4,0,0,0,1,7,0,0,0,0,0,0,0,0,0,0,0,0,0,0,0,0,0,0,0,0,0,0,0,0,0,0,0,0,0,0,0,0,0,0,0,0,0,0,0,0,0,0,0,0,0,0,0,0,0,0,0],"split_type":[0,0,0,0,0,0,0,0,0,0,0,0,0,0,0,0,0,0,0,0,0,0,0,0,0,0,0,0,0,0,0,0,0,0,0,0,0,0,0,0,0,0,0,0,0,0,0,0,0,0,0,0,0,0,0,0,0,0,0,0,0,0,0,0,0,0,0,0,0,0,0,0,0,0,0,0,0,0,0,0,0,0,0,0,0,0,0,0,0,0,0,0,0,0,0,0,0,0,0,0,0,0,0,0,0,0,0,0,0,0,0],"sum_hessian":[3.37771E5,3.35877E5,1.894E3,3.03277E5,3.26E4,1.871E3,2.3E1,2.7152E5,3.1757E4,3.1286E4,1.314E3,7.53E2,1.118E3,1E1,1.3E1,2.43082E5,2.8438E4,1.6435E4,1.5322E4,3.0318E4,9.68E2,7.64E2,5.5E2,7.44E2,9E0,1.092E3,2.6E1,3E0,7E0,1.1E1,2E0,2.4125E5,1.832E3,1.5215E4,1.3223E4,1.6428E4,7E0,8.753E3,6.569E3,2.0879E4,9.439E3,2.59E2,7.09E2,7.28E2,3.6E1,3.27E2,2.23E2,6.75E2,6.9E1,7E0,2E0,6.55E2,4.37E2,2.1E1,5E0,2E0,1E0,2E0,5E0,9E0,2E0,2.00808E5,4.0442E4,1.809E3,2.3E1,1.0438E4,4.777E3,1.1783E4,1.44E3,1.5074E4,1.354E3,5E0,2E0,7.213E3,1.54E3,4.511E3,2.058E3,8.933E3,1.1946E4,9.438E3,1E0,1.95E2,6.4E1,6.83E2,2.6E1,6.97E2,3.1E1,3.4E1,2E0,2.48E2,7.9E1,1.31E2,9.2E1,5.95E2,8E1,5.4E1,1.5E1,5E0,2E0,5.85E2,7E1,2.62E2,1.75E2,3E0,1.8E1,2E0,3E0,1E0,4E0,7E0,2E0],"tree_param":{"num_deleted":"0","num_feature":"41","num_nodes":"111","size_leaf_vector":"1"}},{"base_weights":[1.4517091E-3,-2.6783017E-2,1.3957896E0,-3.8697954E-2,2.241478E0,1.3388808E0,1.54195595E1,-6.607029E-2,8.713189E-1,1.3392214E0,4.243439E0,1.0645479E0,3.3389955E0,1.0472318E1,3.5092957E1,-8.3719015E-2,1.3175238E0,7.859957E-1,3.6929705E0,1.1993304E0,1.6274815E1,2.8523526E0,9.87274E0,8.6529547E-1,2.987879E0,2.7548053E0,1.388619E1,2.894438E0,2.4319038E1,-2.9141605E0,1.461694E1,-1.1209816E-1,5.713521E-1,8.6732423E-1,3.1072338E0,6.567308E-1,2.1644318E0,3.188261E0,1.4783246E1,1.0673183E0,1.215554E1,5.3807054E0,1.3059662E1,1.9213029E0,7.480917E0,8.965601E0,1.57683525E1,8.120966E-1,7.088064E0,2.7768688E0,3.1149305E1,1.6592096E0,5.2445145E0,8.583984E0,7.995355E1,7.844355E0,-3.0360236E0,2.921125E1,-1.4889679E0,-8.787701E-2,-7.5396146E-3,1.6941634E-1,8.8055725E0,1.9436795E-1,8.953952E-1,8.019176E-1,2.7384436E0,1.7057535E-1,7.869164E-1,5.928967E-1,2.6180506E0,8.3575034E-1,2.7111351E0,-1.0691848E0,8.519257E0,2.970003E-1,4.77443E0,-4.4897786E-1,5.329816E0,-6.235502E-1,6.2975855E0,4.9104118E-1,3.523062E0,9.420414E-1,3.3220103E0,9.508974E-1,3.9779193E0,1.9912352E-1,7.905336E-1,1.5948112E0,4.385756E0,7.9851353E-1,9.865165E0,1.3245688E1,-1.1789496E0,4.6918997E-1,7.834992E0,1.2814857E0,6.0474796E0,1.0324343E0,5.366577E0,-6.552972E-1,3.6634396E1,3.7886772E0,-3.880759E-1,6.4239436E-1,-1.9712068E0,1.1142062E1,4.1938443E0],"categories":[],"categories_nodes":[],"categories_segments":[],"categories_sizes":[],"default_left":[0,0,0,0,0,0,0,0,0,0,0,0,0,0,0,0,0,0,0,0,0,0,0,0,0,0,0,0,0,0,0,0,0,0,0,0,0,0,0,0,0,0,0,0,0,0,0,0,0,0,0,0,0,0,0,0,0,0,0,0,0,0,0,0,0,0,0,0,0,0,0,0,0,0,0,0,0,0,0,0,0,0,0,0,0,0,0,0,0,0,0,0,0,0,0,0,0,0,0,0,0,0,0,0,0,0,0,0,0],"id":8,"left_children":[1,3,5,7,9,11,13,15,17,19,21,23,25,27,29,31,33,35,37,39,41,43,45,47,49,51,53,55,57,-1,-1,59,61,63,65,67,69,71,73,75,77,79,-1,81,83,85,-1,87,89,91,93,95,97,99,101,103,105,107,-1,-1,-1,-1,-1,-1,-1,-1,-1,-1,-1,-1,-1,-1,-1,-1,-1,-1,-1,-1,-1,-1,-1,-1,-1,-1,-1,-1,-1,-1,-1,-1,-1,-1,-1,-1,-1,-1,-1,-1,-1,-1,-1,-1,-1,-1,-1,-1,-1,-1,-1],"loss_changes":[1.3297698E4,8.947619E3,5.329665E3,8.203683E3,3.1191855E3,3.6606455E3,2.26038E3,7.807347E3,2.3124111E3,2.4751682E3,4.177003E3,2.248498E3,4.9218066E3,2.3429722E3,3.5269146E3,5.869002E3,3.2419673E3,1.6620996E3,1.531325E3,1.6995083E3,3.0321611E3,1.8472981E3,3.633538E3,1.7567227E3,3.1877363E3,2.075272E3,1.40263955E4,4.9350034E2,1.291022E3,0E0,0E0,4.758422E3,2.485211E3,1.493637E3,2.0904316E3,1.4781765E3,9.703137E2,6.126863E2,3.098612E3,1.3285114E3,1.0989253E3,1.0916592E3,0E0,9.8956274E2,1.0879983E3,2.5712656E3,0E0,1.4262122E3,5.228247E2,1.8124067E3,1.9980457E3,1.1983955E3,3.2946094E3,1.8524087E3,1.0655809E4,4.098266E2,1.6047119E2,3.262041E2,0E0,0E0,0E0,0E0,0E0,0E0,0E0,0E0,0E0,0E0,0E0,0E0,0E0,0E0,0E0,0E0,0E0,0E0,0E0,0E0,0E0,0E0,0E0,0E0,0E0,0E0,0E0,0E0,0E0,0E0,0E0,0E0,0E0,0E0,0E0,0E0,0E0,0E0,0E0,0E0,0E0,0E0,0E0,0E0,0E0,0E0,0E0,0E0,0E0,0E0,0E0],"parents":[2147483647,0,0,1,1,2,2,3,3,4,4,5,5,6,6,7,7,8,8,9,9,10,10,11,11,12,12,13,13,14,14,15,15,16,16,17,17,18,18,19,19,20,20,21,21,22,22,23,23,24,24,25,25,26,26,27,27,28,28,31,31,32,32,33,33,34,34,35,35,36,36,37,37,38,38,39,39,40,40,41,41,43,43,44,44,45,45,47,47,48,48,49,49,50,50,51,51,52,52,53,53,54,54,55,55,56,56,57,57],"right_children":[2,4,6,8,10,12,14,16,18,20,22,24,26,28,30,32,34,36,38,40,42,44,46,48,50,52,54,56,58,-1,-1,60,62,64,66,68,70,72,74,76,78,80,-1,82,84,86,-1,88,90,92,94,96,98,100,102,104,106,108,-1,-1,-1,-1,-1,-1,-1,-1,-1,-1,-1,-1,-1,-1,-1,-1,-1,-1,-1,-1,-1,-1,-1,-1,-1,-1,-1,-1,-1,-1,-1,-1,-1,-1,-1,-1,-1,-1,-1,-1,-1,-1,-1,-1,-1,-1,-1,-1,-1,-1,-1],"split_conditions":[2E0,3E0,5E0,2.5E1,1E0,1E0,3E0,3E0,1E0,8E0,1E0,3E0,1E1,1E0,3E0,3E0,2E0,3.8E1,1E0,8E0,1E0,2E0,1E0,1E1,5E0,1E0,3E0,1E0,6E0,-2.9141605E0,1.461694E1,2E0,7E0,8E0,4E0,1E0,1E0,1E0,1E0,5E0,2E0,7E0,1.3059662E1,5E0,1E0,1E0,1.57683525E1,3E0,9E0,7E0,4E0,8E0,3E0,1E0,1E0,1E0,1E0,2E0,-1.4889679E0,-8.787701E-2,-7.5396146E-3,1.6941634E-1,8.8055725E0,1.9436795E-1,8.953952E-1,8.019176E-1,2.7384436E0,1.7057535E-1,7.869164E-1,5.928967E-1,2.6180506E0,8.3575034E-1,2.7111351E0,-1.0691848E0,8.519257E0,2.970003E-1,4.77443E0,-4.4897786E-1,5.329816E0,-6.235502E-1,6.2975855E0,4.9104118E-1,3.523062E0,9.420414E-1,3.3220103E0,9.508974E-1,3.9779193E0,1.9912352E-1,7.905336E-1,1.5948112E0,4.385756E0,7.9851353E-1,9.865165E0,1.3245688E1,-1.1789496E0,4.6918997E-1,7.834992E0,1.2814857E0,6.0474796E0,1.0324343E0,5.366577E0,-6.552972E-1,3.6634396E1,3.7886772E0,-3.880759E-1,6.4239436E-1,-1.9712068E0,1.1142062E1,4.1938443E0],"split_indices":[16,0,6,7,14,14,15,15,19,4,16,5,7,27,1,3,5,7,25,3,38,6,13,1,15,11,11,15,1,0,0,7,6,7,3,25,24,18,38,12,1,1,0,9,15,27,0,3,7,9,1,16,8,20,0,29,0,5,0,0,0,0,0,0,0,0,0,0,0,0,0,0,0,0,0,0,0,0,0,0,0,0,0,0,0,0,0,0,0,0,0,0,0,0,0,0,0,0,0,0,0,0,0,0,0,0,0,0,0],"split_type":[0,0,0,0,0,0,0,0,0,0,0,0,0,0,0,0,0,0,0,0,0,0,0,0,0,0,0,0,0,0,0,0,0,0,0,0,0,0,0,0,0,0,0,0,0,0,0,0,0,0,0,0,0,0,0,0,0,0,0,0,0,0,0,0,0,0,0,0,0,0,0,0,0,0,0,0,0,0,0,0,0,0,0,0,0,0,0,0,0,0,0,0,0,0,0,0,0,0,0,0,0,0,0,0,0,0,0,0,0],"sum_hessian":[3.37771E5,3.31068E5,6.703E3,3.29339E5,1.729E3,6.677E3,2.6E1,3.19723E5,9.616E3,1.193E3,5.36E2,5.873E3,8.04E2,2.2E1,4E0,3.15697E5,4.026E3,9.335E3,2.81E2,1.183E3,1E1,4.31E2,1.05E2,5.323E3,5.5E2,7.63E2,4.1E1,1.5E1,7E0,1E0,3E0,3.02589E5,1.3108E4,3.218E3,8.08E2,8.536E3,7.99E2,2.7E2,1.1E1,1.17E3,1.3E1,8E0,2E0,3.6E2,7.1E1,1.04E2,1E0,5.279E3,4.4E1,5.47E2,3E0,5.31E2,2.32E2,3.9E1,2E0,8E0,7E0,6E0,1E0,9.8266E4,2.04323E5,1.3106E4,2E0,2.917E3,3.01E2,7.55E2,5.3E1,8.171E3,3.65E2,7.78E2,2.1E1,2.54E2,1.6E1,5E0,6E0,1.165E3,5E0,4E0,9E0,6E0,2E0,3.51E2,9E0,3.3E1,3.8E1,4.5E1,5.9E1,4.883E3,3.96E2,3.7E1,7E0,5.46E2,1E0,2E0,1E0,5.3E2,1E0,2.19E2,1.3E1,2.6E1,1.3E1,1E0,1E0,5E0,3E0,3E0,4E0,3E0,3E0],"tree_param":{"num_deleted":"0","num_feature":"41","num_nodes":"109","size_leaf_vector":"1"}},{"base_weights":[1.6132693E-3,-4.2383812E-2,5.722923E-1,-1.14334665E-1,1.9100404E-1,4.0076354E-1,2.2178757E0,-2.003888E-1,1.5532924E-1,1.87827E-1,1.9736568E1,7.613617E-2,9.151311E-1,1.3629254E0,5.1708035E0,-2.475007E-1,2.156365E-1,4.691664E-2,6.498884E-1,6.778824E-2,6.49179E-1,4.0109188E1,-5.45187E-1,3.7833374E-2,2.1279848E0,8.013895E-1,3.8873417E0,2.475509E0,3.85614E-1,4.4601865E0,1.9434175E1,-2.5865364E-1,1.4590282E0,7.533974E-2,1.3844312E0,4.3713152E-2,1.9084192E1,5.965013E-1,4.4048395E0,3.9743345E-2,1.897697E0,6.426548E-1,1.5025482E1,4.816656E1,-2.6651504E-2,-2.4518397E0,1.6342095E0,-1.0444733E-1,6.0861886E-1,7.2197586E-1,4.6001353E0,7.3638475E-1,3.9470978E0,3.2599428E0,2.4647556E1,2.1868212E0,1.0645624E1,2.4042203E-1,1.26786785E1,4.0306363E0,2.6921673E1,1.4588336E1,1.4547681E1,-6.7978926E-2,-1.9305296E-1,4.2261523E-1,3.0186543E0,-3.0020012E-3,4.0808338E-1,3.1829166E-1,1.3230742E0,7.580953E-3,7.953636E-1,1.0800569E0,8.296368E0,1.5988205E-1,9.402874E-1,5.767771E-1,4.582175E0,3.7484006E-3,3.4857178E-1,9.27699E-1,1.3836217E-1,1.8801385E-1,2.3281786E0,1.7171572E1,1.7817782E0,-1.2668836E0,-1.5316522E-1,-3.6899015E-2,1.1621063E0,1.428443E-1,5.851194E-1,-7.197758E-2,1.5589544E0,1.1262466E0,8.280057E0,1.5087238E-1,4.665338E-1,6.205701E-1,1.775154E0,8.991336E-1,8.589477E0,1.0997969E1,1.4014828E-1,6.1399484E-1,4.7476573E0,2.0485983E0,9.5520735E0,2.0020785E-2,1.6415814E0,7.07161E-1,6.266112E0,1.0462685E0,5.5944715E0,1.3012562E0,3.1139235E1,6.793904E0,-7.03192E-1],"categories":[],"categories_nodes":[],"categories_segments":[],"categories_sizes":[],"default_left":[0,0,0,0,0,0,0,0,0,0,0,0,0,0,0,0,0,0,0,0,0,0,0,0,0,0,0,0,0,0,0,0,0,0,0,0,0,0,0,0,0,0,0,0,0,0,0,0,0,0,0,0,0,0,0,0,0,0,0,0,0,0,0,0,0,0,0,0,0,0,0,0,0,0,0,0,0,0,0,0,0,0,0,0,0,0,0,0,0,0,0,0,0,0,0,0,0,0,0,0,0,0,0,0,0,0,0,0,0,0,0,0,0,0,0,0,0,0,0],"id":9,"left_children":[1,3,5,7,9,11,13,15,17,19,21,23,25,27,29,31,33,35,37,39,41,43,45,47,49,51,53,55,57,59,61,63,65,67,69,71,73,75,77,79,81,83,-1,85,-1,87,-1,89,91,93,95,97,99,101,103,105,107,109,111,113,115,117,-1,-1,-1,-1,-1,-1,-1,-1,-1,-1,-1,-1,-1,-1,-1,-1,-1,-1,-1,-1,-1,-1,-1,-1,-1,-1,-1,-1,-1,-1,-1,-1,-1,-1,-1,-1,-1,-1,-1,-1,-1,-1,-1,-1,-1,-1,-1,-1,-1,-1,-1,-1,-1,-1,-1,-1,-1],"loss_changes":[8.480876E3,5.2660684E3,6.823429E3,5.5624365E3,4.585058E3,3.656076E3,5.7541035E3,3.5615815E3,3.1090798E3,4.091772E3,4.9801772E3,1.0550107E3,2.860962E3,1.9247251E3,5.1028457E3,3.107086E3,3.0310312E3,2.8998289E3,2.0874302E3,3.0088962E3,4.888016E3,1.9476221E3,9.3336075E1,1.0704347E3,8.5174194E2,1.6659043E3,3.9834297E3,1.9296499E3,1.6818545E3,4.6095234E3,2.672039E3,2.0006143E3,4.4462695E2,1.8100322E3,1.9341809E3,2.2869443E3,9.6206665E2,1.6567046E3,3.909679E3,1.7657716E3,1.5173027E3,1.7260679E3,0E0,1.5754785E3,0E0,1.8473335E1,0E0,7.7905505E2,4.6654608E2,6.812888E2,1.6281106E3,1.5278765E3,5.984021E2,1.9413962E3,2.5970415E3,1.4989326E3,2.0477483E3,8.4830585E2,8.827112E2,3.7533594E3,1.5175344E4,3.0547773E3,0E0,0E0,0E0,0E0,0E0,0E0,0E0,0E0,0E0,0E0,0E0,0E0,0E0,0E0,0E0,0E0,0E0,0E0,0E0,0E0,0E0,0E0,0E0,0E0,0E0,0E0,0E0,0E0,0E0,0E0,0E0,0E0,0E0,0E0,0E0,0E0,0E0,0E0,0E0,0E0,0E0,0E0,0E0,0E0,0E0,0E0,0E0,0E0,0E0,0E0,0E0,0E0,0E0,0E0,0E0,0E0,0E0],"parents":[2147483647,0,0,1,1,2,2,3,3,4,4,5,5,6,6,7,7,8,8,9,9,10,10,11,11,12,12,13,13,14,14,15,15,16,16,17,17,18,18,19,19,20,20,21,21,22,22,23,23,24,24,25,25,26,26,27,27,28,28,29,29,30,30,31,31,32,32,33,33,34,34,35,35,36,36,37,37,38,38,39,39,40,40,41,41,43,43,45,45,47,47,48,48,49,49,50,50,51,51,52,52,53,53,54,54,55,55,56,56,57,57,58,58,59,59,60,60,61,61],"right_children":[2,4,6,8,10,12,14,16,18,20,22,24,26,28,30,32,34,36,38,40,42,44,46,48,50,52,54,56,58,60,62,64,66,68,70,72,74,76,78,80,82,84,-1,86,-1,88,-1,90,92,94,96,98,100,102,104,106,108,110,112,114,116,118,-1,-1,-1,-1,-1,-1,-1,-1,-1,-1,-1,-1,-1,-1,-1,-1,-1,-1,-1,-1,-1,-1,-1,-1,-1,-1,-1,-1,-1,-1,-1,-1,-1,-1,-1,-1,-1,-1,-1,-1,-1,-1,-1,-1,-1,-1,-1,-1,-1,-1,-1,-1,-1,-1,-1,-1,-1],"split_conditions":[1E0,1E1,2E0,1E0,6E0,1E0,1E0,2E0,1E0,1E0,1E0,4E0,3E0,1E0,5E0,6E0,2E0,1.1E1,3E0,1E0,5E0,1E0,2E0,4E0,1E0,9E0,1E0,6E0,8E0,5E0,1E0,1E0,3E0,2E0,3E0,5E0,1E0,3E0,3E0,1E0,1E0,1E0,1.5025482E1,4E0,-2.6651504E-2,3E0,1.6342095E0,6E0,3E0,1E0,1E0,1E0,1E0,1.4E1,1E0,4E0,1E0,5E0,4E0,4E0,3E0,1E0,1.4547681E1,-6.7978926E-2,-1.9305296E-1,4.2261523E-1,3.0186543E0,-3.0020012E-3,4.0808338E-1,3.1829166E-1,1.3230742E0,7.580953E-3,7.953636E-1,1.0800569E0,8.296368E0,1.5988205E-1,9.402874E-1,5.767771E-1,4.582175E0,3.7484006E-3,3.4857178E-1,9.27699E-1,1.3836217E-1,1.8801385E-1,2.3281786E0,1.7171572E1,1.7817782E0,-1.2668836E0,-1.5316522E-1,-3.6899015E-2,1.1621063E0,1.428443E-1,5.851194E-1,-7.197758E-2,1.5589544E0,1.1262466E0,8.280057E0,1.5087238E-1,4.665338E-1,6.205701E-1,1.775154E0,8.991336E-1,8.589477E0,1.0997969E1,1.4014828E-1,6.1399484E-1,4.7476573E0,2.0485983E0,9.5520735E0,2.0020785E-2,1.6415814E0,7.07161E-1,6.266112E0,1.0462685E0,5.5944715E0,1.3012562E0,3.1139235E1,6.793904E0,-7.03192E-1],"split_indices":[16,7,15,12,9,9,11,3,11,20,37,3,6,26,15,13,5,13,6,19,10,5,5,1,5,1,21,3,4,12,29,20,9,11,9,12,37,0,9,21,26,18,0,1,0,1,0,13,16,24,21,11,20,7,8,0,25,15,1,0,11,17,0,0,0,0,0,0,0,0,0,0,0,0,0,0,0,0,0,0,0,0,0,0,0,0,0,0,0,0,0,0,0,0,0,0,0,0,0,0,0,0,0,0,0,0,0,0,0,0,0,0,0,0,0,0,0,0,0],"split_type":[0,0,0,0,0,0,0,0,0,0,0,0,0,0,0,0,0,0,0,0,0,0,0,0,0,0,0,0,0,0,0,0,0,0,0,0,0,0,0,0,0,0,0,0,0,0,0,0,0,0,0,0,0,0,0,0,0,0,0,0,0,0,0,0,0,0,0,0,0,0,0,0,0,0,0,0,0,0,0,0,0,0,0,0,0,0,0,0,0,0,0,0,0,0,0,0,0,0,0,0,0,0,0,0,0,0,0,0,0,0,0,0,0,0,0,0,0,0,0],"sum_hessian":[3.37771E5,3.13595E5,2.4176E4,2.39699E5,7.3896E4,2.1895E4,2.281E3,1.81712E5,5.7987E4,7.3885E4,1.1E1,1.3424E4,8.471E3,1.77E3,5.11E2,1.63228E5,1.8484E4,4.7562E4,1.0425E4,5.8631E4,1.5254E4,5E0,6E0,1.3179E4,2.45E2,8.16E3,3.11E2,8.27E2,9.43E2,4.88E2,2.3E1,1.62169E5,1.059E3,1.6504E4,1.98E3,4.7555E4,7E0,1.028E4,1.45E2,5.7747E4,8.84E2,1.5253E4,1E0,4E0,1E0,5E0,1E0,1.055E4,2.629E3,1.57E2,8.8E1,7.996E3,1.64E2,3.03E2,8E0,8E2,2.7E1,9.33E2,1E1,4.8E2,8E0,2.1E1,2E0,1.49701E5,1.2468E4,1.054E3,5E0,1.5477E4,1.027E3,1.79E3,1.9E2,4.7222E4,3.33E2,3E0,4E0,1.003E4,2.5E2,1.19E2,2.6E1,5.6379E4,1.368E3,4.82E2,4.02E2,1.522E4,3.3E1,3E0,1E0,2E0,3E0,1.0502E4,4.8E1,2.394E3,2.35E2,1.3E2,2.7E1,8.6E1,2E0,6.223E3,1.773E3,8.5E1,7.9E1,3.01E2,2E0,5E0,3E0,7.93E2,7E0,2.4E1,3E0,9.04E2,2.9E1,5E0,5E0,4.64E2,1.6E1,7E0,1E0,1.4E1,7E0],"tree_param":{"num_deleted":"0","num_feature":"41","num_nodes":"119","size_leaf_vector":"1"}},{"base_weights":[1.6665496E-3,-1.8385328E-2,9.4505435E-1,-2.5161192E-2,2.5478523E0,5.085189E-1,1.7304766E0,-3.6575902E-2,1.2437513E0,7.2597176E-1,4.166605E0,4.9719468E-1,7.752397E0,1.6595517E0,1.5231308E1,-4.2838193E-2,1.68784E0,1.1765052E0,5.0324997E1,1.4608582E0,-6.916184E-1,6.906024E0,2.542525E0,4.860833E-1,7.6047573E0,1.2298852E0,2.7819936E0,2.0240294E1,-2.4636235E0,-7.490128E-2,2.9222202E-1,1.3655951E0,5.887621E0,1.9070965E0,-1.1586404E-1,-1.1936016E0,3.1985403E1,4.2760685E-1,3.016343E0,-8.923589E-1,6.4068336E0,6.283562E0,3.1322908E1,2.119532E0,1.4216673E1,8.6266875E-2,1.07223E0,1.1515812E0,6.771597E0,2.4438493E0,6.8902674E0,3.1723588E0,2.6244225E1,-3.3457834E-2,6.645115E-2,6.5109804E-2,4.9118945E-1,3.911863E-1,7.041283E0,1.3898741E0,7.4356246E0,8.105663E-1,2.4871483E-1,-2.4087977E-2,-2.2858412E0,7.84062E-1,-1.5795515E-1,3.386766E-1,1.554952E0,1.3521653E-1,-5.283401E-1,-1.4547054E0,6.026159E0,8.464852E-1,3.1014924E0,1.247647E1,7.904177E-2,1.1371665E0,-8.0831E-2,2.675154E-1,8.208986E0,1.6821245E-2,4.881665E0,3.0357963E-1,3.039923E0,3.1466788E-1,1.1965215E0,5.038503E-1,3.4028404E0,6.621301E-1,1.5072943E0,1.5885231E0,4.5005794E0,1.6425664E0,-5.6043434E-1,2.6385303E0,9.178425E0],"categories":[],"categories_nodes":[],"categories_segments":[],"categories_sizes":[],"default_left":[0,0,0,0,0,0,0,0,0,0,0,0,0,0,0,0,0,0,0,0,0,0,0,0,0,0,0,0,0,0,0,0,0,0,0,0,0,0,0,0,0,0,0,0,0,0,0,0,0,0,0,0,0,0,0,0,0,0,0,0,0,0,0,0,0,0,0,0,0,0,0,0,0,0,0,0,0,0,0,0,0,0,0,0,0,0,0,0,0,0,0,0,0,0,0,0,0],"id":10,"left_children":[1,3,5,7,9,11,13,15,17,19,21,23,-1,25,27,29,31,33,35,37,39,41,43,45,-1,47,49,51,-1,53,55,57,59,61,63,-1,-1,65,67,69,71,73,75,77,79,81,83,85,87,89,91,93,95,-1,-1,-1,-1,-1,-1,-1,-1,-1,-1,-1,-1,-1,-1,-1,-1,-1,-1,-1,-1,-1,-1,-1,-1,-1,-1,-1,-1,-1,-1,-1,-1,-1,-1,-1,-1,-1,-1,-1,-1,-1,-1,-1,-1],"loss_changes":[6.389548E3,5.7511807E3,2.4094585E3,4.7780156E3,2.565706E3,1.2838228E3,2.3791182E3,3.5305544E3,9.647614E3,4.2917688E2,2.0334463E3,1.235554E3,0E0,1.2017856E3,1.6927734E3,3.499586E3,1.5929832E3,2.774262E3,1.2651865E4,4.3426324E2,2.066347E2,2.4021377E3,1.4068491E3,1.0587054E3,0E0,7.7719653E2,9.4309033E2,1.0439653E3,0E0,3.2274717E3,2.8769465E3,1.4682463E3,1.8769119E3,1.6060146E3,2.8284573E2,0E0,0E0,3.4342288E2,4.3583838E2,1.6181693E2,7.1333966E2,2.3290962E3,1.2643826E3,1.1267715E3,1.7273796E3,1.3123639E3,9.9065845E2,5.1580273E2,5.628751E2,3.7990137E2,5.9342554E2,5.665841E1,3.3821924E2,0E0,0E0,0E0,0E0,0E0,0E0,0E0,0E0,0E0,0E0,0E0,0E0,0E0,0E0,0E0,0E0,0E0,0E0,0E0,0E0,0E0,0E0,0E0,0E0,0E0,0E0,0E0,0E0,0E0,0E0,0E0,0E0,0E0,0E0,0E0,0E0,0E0,0E0,0E0,0E0,0E0,0E0,0E0,0E0],"parents":[2147483647,0,0,1,1,2,2,3,3,4,4,5,5,6,6,7,7,8,8,9,9,10,10,11,11,13,13,14,14,15,15,16,16,17,17,18,18,19,19,20,20,21,21,22,22,23,23,25,25,26,26,27,27,29,29,30,30,31,31,32,32,33,33,34,34,37,37,38,38,39,39,40,40,41,41,42,42,43,43,44,44,45,45,46,46,47,47,48,48,49,49,50,50,51,51,52,52],"right_children":[2,4,6,8,10,12,14,16,18,20,22,24,-1,26,28,30,32,34,36,38,40,42,44,46,-1,48,50,52,-1,54,56,58,60,62,64,-1,-1,66,68,70,72,74,76,78,80,82,84,86,88,90,92,94,96,-1,-1,-1,-1,-1,-1,-1,-1,-1,-1,-1,-1,-1,-1,-1,-1,-1,-1,-1,-1,-1,-1,-1,-1,-1,-1,-1,-1,-1,-1,-1,-1,-1,-1,-1,-1,-1,-1,-1,-1,-1,-1,-1,-1],"split_conditions":[7E0,6E0,2E0,4E0,3E0,2E0,4E0,4E0,7E0,1E0,1E0,7E0,7.752397E0,9E0,1E0,1.8E1,6E0,1E0,1E0,1E0,4E0,1E0,4E0,1E0,7.6047573E0,8E0,3E0,5E0,-2.4636235E0,1E0,1E0,6E0,3E0,1E0,1E0,-1.1936016E0,3.1985403E1,1E0,1E0,1E0,3E0,1E0,2E0,3E0,1E0,5E0,1E0,2E0,1E0,2E0,2E0,2E0,1E0,-3.3457834E-2,6.645115E-2,6.5109804E-2,4.9118945E-1,3.911863E-1,7.041283E0,1.3898741E0,7.4356246E0,8.105663E-1,2.4871483E-1,-2.4087977E-2,-2.2858412E0,7.84062E-1,-1.5795515E-1,3.386766E-1,1.554952E0,1.3521653E-1,-5.283401E-1,-1.4547054E0,6.026159E0,8.464852E-1,3.1014924E0,1.247647E1,7.904177E-2,1.1371665E0,-8.0831E-2,2.675154E-1,8.208986E0,1.6821245E-2,4.881665E0,3.0357963E-1,3.039923E0,3.1466788E-1,1.1965215E0,5.038503E-1,3.4028404E0,6.621301E-1,1.5072943E0,1.5885231E0,4.5005794E0,1.6425664E0,-5.6043434E-1,2.6385303E0,9.178425E0],"split_indices":[1,3,5,9,7,13,6,15,12,26,8,11,0,1,30,7,15,23,2,15,15,21,12,20,0,4,15,7,0,11,35,10,0,26,20,0,0,8,37,0,0,15,0,1,14,16,23,11,6,6,6,0,3,0,0,0,0,0,0,0,0,0,0,0,0,0,0,0,0,0,0,0,0,0,0,0,0,0,0,0,0,0,0,0,0,0,0,0,0,0,0,0,0,0,0,0,0],"split_type":[0,0,0,0,0,0,0,0,0,0,0,0,0,0,0,0,0,0,0,0,0,0,0,0,0,0,0,0,0,0,0,0,0,0,0,0,0,0,0,0,0,0,0,0,0,0,0,0,0,0,0,0,0,0,0,0,0,0,0,0,0,0,0,0,0,0,0,0,0,0,0,0,0,0,0,0,0,0,0,0,0,0,0,0,0,0,0,0,0,0,0,0,0,0,0,0,0],"sum_hessian":[3.37771E5,3.30742E5,7.029E3,3.29872E5,8.7E2,4.519E3,2.51E3,3.26932E5,2.94E3,4.1E2,4.6E2,4.518E3,1E0,2.498E3,1.2E1,3.2575E5,1.182E3,2.937E3,3E0,2.7E2,1.4E2,1.7E2,2.9E2,4.517E3,1E0,1.808E3,6.9E2,1E1,2E0,2.97301E5,2.8449E4,1.099E3,8.3E1,1.876E3,1.061E3,2E0,1E0,1.63E2,1.07E2,1.37E2,3E0,1.67E2,3E0,2.81E2,9E0,2.686E3,1.831E3,1.784E3,2.4E1,6.39E2,5.1E1,3E0,7E0,2.64606E5,3.2695E4,2.6944E4,1.505E3,1.097E3,2E0,7.9E1,4E0,1.079E3,7.97E2,1.057E3,4E0,4.9E1,1.14E2,5.8E1,4.9E1,5.4E1,8.3E1,2E0,1E0,9.1E1,7.6E1,2E0,1E0,1.65E2,1.16E2,5E0,4E0,2.682E3,4E0,1.82E3,1.1E1,1.723E3,6.1E1,1.2E1,1.2E1,5.87E2,5.2E1,4.4E1,7E0,2E0,1E0,2E0,5E0],"tree_param":{"num_deleted":"0","num_feature":"41","num_nodes":"97","size_leaf_vector":"1"}},{"base_weights":[1.5420475E-3,-4.9754847E-2,2.852614E-1,-5.637764E-2,1.5953517E0,2.5331499E-2,7.300171E-1,-6.920665E-2,6.098118E-1,1.3714746E0,7.1763735E0,-2.1349018E-2,1.4711225E0,3.6909276E-1,1.3833805E0,-1.4394468E-1,4.3379825E-2,5.279554E-1,6.726619E0,1.1018836E0,4.952878E0,7.666419E-1,2.2402145E1,-9.130634E-2,6.0113555E-1,1.2767338E0,7.439053E0,3.4637606E-1,4.843829E0,8.498026E-1,2.8515036E0,-1.5173045E-1,1.2195257E0,-1.3218398E-1,3.1126136E-1,5.145683E-1,1.4636755E1,4.84571E0,2.6295517E1,9.544612E-1,4.719357E0,7.5211663E0,2.8557258E0,7.9404488E0,-8.559315E-1,1.0571712E0,5.634267E1,-9.435957E-2,1.0767446E1,5.8783174E-1,6.464043E0,2.2893574E0,5.5994815E-1,4.2112665E0,1.6596004E1,3.415948E-1,5.9153404E0,2.7134645E0,1.7087812E1,8.320541E-1,9.005186E0,1.8178703E0,6.2975464E0,-4.733438E-2,4.019717E-1,3.0591118E-1,3.01463E0,-4.2072367E-2,4.3843427E-1,9.115316E-2,2.5452151E0,7.4252635E-2,3.710227E-1,3.4239632E-1,6.9759817E0,2.3727136E0,2.7182174E-1,1.5731479E1,3.437437E-2,1.4474076E-1,6.6479766E-1,7.563066E-1,3.3186784E0,1.9513851E0,4.7571926E0,-1.4765155E0,1.5863897E0,4.0720776E-2,7.044602E0,1.5520465E-1,-9.7267294E-1,-1.8782426E-1,1.3897108E0,3.5979843E1,3.13858E0,-3.769618E-2,2.3799817E-1,7.104452E-1,3.951756E0,3.3933726E-1,4.2853385E-2,5.470053E-1,3.700994E0,6.057788E-2,8.116941E-1,3.736652E-1,2.1960988E0,2.8645968E0,7.547611E0,1.3323572E-1,-1.3433367E-1,1.8023068E0,1.305266E-1,4.3721113E-1,8.790209E0,7.123448E-2,4.460395E-1,3.131057E-1,1.2159511E0,2.6930358E0,8.6673373E-1],"categories":[],"categories_nodes":[],"categories_segments":[],"categories_sizes":[],"default_left":[0,0,0,0,0,0,0,0,0,0,0,0,0,0,0,0,0,0,0,0,0,0,0,0,0,0,0,0,0,0,0,0,0,0,0,0,0,0,0,0,0,0,0,0,0,0,0,0,0,0,0,0,0,0,0,0,0,0,0,0,0,0,0,0,0,0,0,0,0,0,0,0,0,0,0,0,0,0,0,0,0,0,0,0,0,0,0,0,0,0,0,0,0,0,0,0,0,0,0,0,0,0,0,0,0,0,0,0,0,0,0,0,0,0,0,0,0,0,0,0,0],"id":11,"left_children":[1,3,5,7,9,11,13,15,17,19,21,23,25,27,29,31,33,35,37,39,41,43,45,47,49,51,53,55,57,59,61,63,65,67,69,71,73,75,77,79,81,83,85,87,89,91,93,95,97,99,-1,101,103,105,107,109,-1,111,113,115,-1,117,119,-1,-1,-1,-1,-1,-1,-1,-1,-1,-1,-1,-1,-1,-1,-1,-1,-1,-1,-1,-1,-1,-1,-1,-1,-1,-1,-1,-1,-1,-1,-1,-1,-1,-1,-1,-1,-1,-1,-1,-1,-1,-1,-1,-1,-1,-1,-1,-1,-1,-1,-1,-1,-1,-1,-1,-1,-1,-1],"loss_changes":[4.915921E3,3.1167068E3,5.978972E3,2.435023E3,1.4232915E3,2.2031162E3,4.498128E3,2.3520747E3,2.691716E3,1.06047E3,4.2769224E3,1.377153E3,1.1749634E3,1.2476172E3,5.3150117E3,1.7836404E3,5.245095E3,9.95964E2,2.4858992E3,5.4372473E2,3.9325073E2,3.7927737E2,9.35841E3,9.4355664E2,8.776465E2,7.172938E2,8.7592395E2,1.1259155E3,1.57085E3,2.553072E3,6.4321094E3,1.5079292E3,1.6728715E3,8.6527954E2,2.6741094E3,1.0236062E3,5.5487854E2,7.893502E2,4.10064E3,5.878138E2,5.29865E2,1.8497375E2,8.583567E2,7.2459705E2,9.015839E1,5.706187E1,1.3333083E4,7.89651E2,1.304129E2,7.720138E2,0E0,1.8971675E3,4.4578198E2,2.2139706E2,2.425227E2,9.8972986E2,0E0,4.0268213E2,1.6753328E3,1.9376555E3,0E0,2.4064043E3,3.7821152E3,0E0,0E0,0E0,0E0,0E0,0E0,0E0,0E0,0E0,0E0,0E0,0E0,0E0,0E0,0E0,0E0,0E0,0E0,0E0,0E0,0E0,0E0,0E0,0E0,0E0,0E0,0E0,0E0,0E0,0E0,0E0,0E0,0E0,0E0,0E0,0E0,0E0,0E0,0E0,0E0,0E0,0E0,0E0,0E0,0E0,0E0,0E0,0E0,0E0,0E0,0E0,0E0,0E0,0E0,0E0,0E0,0E0,0E0],"parents":[2147483647,0,0,1,1,2,2,3,3,4,4,5,5,6,6,7,7,8,8,9,9,10,10,11,11,12,12,13,13,14,14,15,15,16,16,17,17,18,18,19,19,20,20,21,21,22,22,23,23,24,24,25,25,26,26,27,27,28,28,29,29,30,30,31,31,32,32,33,33,34,34,35,35,36,36,37,37,38,38,39,39,40,40,41,41,42,42,43,43,44,44,45,45,46,46,47,47,48,48,49,49,51,51,52,52,53,53,54,54,55,55,57,57,58,58,59,59,61,61,62,62],"right_children":[2,4,6,8,10,12,14,16,18,20,22,24,26,28,30,32,34,36,38,40,42,44,46,48,50,52,54,56,58,60,62,64,66,68,70,72,74,76,78,80,82,84,86,88,90,92,94,96,98,100,-1,102,104,106,108,110,-1,112,114,116,-1,118,120,-1,-1,-1,-1,-1,-1,-1,-1,-1,-1,-1,-1,-1,-1,-1,-1,-1,-1,-1,-1,-1,-1,-1,-1,-1,-1,-1,-1,-1,-1,-1,-1,-1,-1,-1,-1,-1,-1,-1,-1,-1,-1,-1,-1,-1,-1,-1,-1,-1,-1,-1,-1,-1,-1,-1,-1,-1,-1],"split_conditions":[1E0,1E0,1E0,1E0,1E0,9E0,1E0,1E0,3E0,1E0,1E0,2E0,1E0,5E0,1E0,3.5E1,1E0,4E0,3E0,1E0,2.6E1,1E1,1.5E1,6E0,8E0,1E0,3E0,8E0,1E0,2.2E1,1E0,5E0,1E0,1E0,6E0,1.3E1,2E0,1E0,1E0,1E0,1E0,2.5E1,1E0,8E0,2.4E1,1E0,1.6E1,1E0,3E0,1E0,6.464043E0,3E0,3E0,1E0,2E0,1E0,5.9153404E0,1E0,2E0,3E0,9.005186E0,1E0,1E0,-4.733438E-2,4.019717E-1,3.0591118E-1,3.01463E0,-4.2072367E-2,4.3843427E-1,9.115316E-2,2.5452151E0,7.4252635E-2,3.710227E-1,3.4239632E-1,6.9759817E0,2.3727136E0,2.7182174E-1,1.5731479E1,3.437437E-2,1.4474076E-1,6.6479766E-1,7.563066E-1,3.3186784E0,1.9513851E0,4.7571926E0,-1.4765155E0,1.5863897E0,4.0720776E-2,7.044602E0,1.5520465E-1,-9.7267294E-1,-1.8782426E-1,1.3897108E0,3.5979843E1,3.13858E0,-3.769618E-2,2.3799817E-1,7.104452E-1,3.951756E0,3.3933726E-1,4.2853385E-2,5.470053E-1,3.700994E0,6.057788E-2,8.116941E-1,3.736652E-1,2.1960988E0,2.8645968E0,7.547611E0,1.3323572E-1,-1.3433367E-1,1.8023068E0,1.305266E-1,4.3721113E-1,8.790209E0,7.123448E-2,4.460395E-1,3.131057E-1,1.2159511E0,2.6930358E0,8.6673373E-1],"split_indices":[0,19,15,39,28,7,6,38,12,20,33,10,30,15,11,7,22,16,9,18,7,7,7,6,11,26,3,12,33,7,16,3,28,18,12,7,5,26,8,33,23,7,34,7,7,25,7,21,4,26,0,6,12,38,6,23,0,17,4,1,0,14,26,0,0,0,0,0,0,0,0,0,0,0,0,0,0,0,0,0,0,0,0,0,0,0,0,0,0,0,0,0,0,0,0,0,0,0,0,0,0,0,0,0,0,0,0,0,0,0,0,0,0,0,0,0,0,0,0,0,0],"split_type":[0,0,0,0,0,0,0,0,0,0,0,0,0,0,0,0,0,0,0,0,0,0,0,0,0,0,0,0,0,0,0,0,0,0,0,0,0,0,0,0,0,0,0,0,0,0,0,0,0,0,0,0,0,0,0,0,0,0,0,0,0,0,0,0,0,0,0,0,0,0,0,0,0,0,0,0,0,0,0,0,0,0,0,0,0,0,0,0,0,0,0,0,0,0,0,0,0,0,0,0,0,0,0,0,0,0,0,0,0,0,0,0,0,0,0,0,0,0,0,0,0],"sum_hessian":[3.37771E5,2.86053E5,5.1718E4,2.84907E5,1.146E3,3.2642E4,1.9076E4,2.79525E5,5.382E3,1.103E3,4.3E1,3.1622E4,1.02E3,1.2289E4,6.787E3,1.68001E5,1.11524E5,5.312E3,7E1,1.027E3,7.6E1,3.1E1,1.2E1,2.8428E4,3.194E3,9.89E2,3.1E1,1.2228E4,6.1E1,4.979E3,1.808E3,1.67048E5,9.53E2,6.7371E4,4.4153E4,5.308E3,4E0,6.5E1,5E0,9.88E2,3.9E1,3.3E1,4.3E1,5E0,2.6E1,8E0,4E0,2.8421E4,7E0,3.193E3,1E0,4.09E2,5.8E2,2.4E1,7E0,1.2226E4,2E0,5.3E1,8E0,4.977E3,2E0,1.392E3,4.16E2,1.66374E5,6.74E2,9.33E2,2E1,6.7033E4,3.38E2,4.4114E4,3.9E1,3.876E3,1.432E3,2E0,2E0,3.6E1,2.9E1,2E0,3E0,7.2E2,2.68E2,3E1,9E0,3.1E1,2E0,1E1,3.3E1,4E0,1E0,1.7E1,9E0,6E0,2E0,1E0,3E0,2.7454E4,9.67E2,2E0,5E0,1.437E3,1.756E3,3.92E2,1.7E1,4.98E2,8.2E1,1.3E1,1.1E1,5E0,2E0,1.0821E4,1.405E3,2.1E1,3.2E1,4E0,4E0,2.609E3,2.368E3,1.035E3,3.57E2,2.32E2,1.84E2],"tree_param":{"num_deleted":"0","num_feature":"41","num_nodes":"121","size_leaf_vector":"1"}},{"base_weights":[1.5314089E-3,-1.5081833E-2,5.6081134E-1,-1.612671E-2,7.9551888E0,3.065349E-1,1.3409245E0,-8.878514E-2,8.784757E-2,5.3675537E0,1.2200341E1,2.923128E-1,1.7665636E1,1.2698386E0,2.0045488E1,-1.0160644E-1,9.2599744E-1,2.1925053E-1,-9.223221E-2,2.7004662E0,1.79362E1,2.7563715E-1,1.3854192E1,-1.475734E0,1.7005875E1,1.245902E0,8.757422E0,2.8805016E1,1.8948245E0,-1.2210267E-1,3.9868E-1,8.512733E-1,5.6934137E0,1.8886147E-1,2.080496E0,-1.01972006E-1,3.1030657E0,1.14815645E1,8.5423094E-1,9.633296E0,5.844087E0,1.9349937E-1,2.9319148E0,-6.7522097E0,2.680581E1,1.5851475E-1,-8.963818E-1,1.1067364E0,5.7678947E0,2.0832021E0,9.536525E0,2.295872E0,-2.306913E0,-4.4999126E-2,6.260905E-2,1.0025E-2,2.4210821E-1,2.3880088E-1,1.2165052E0,5.70961E-1,6.4995866E0,4.9291722E-2,4.8686656E-1,4.897618E-1,2.4650228E0,-5.489308E-2,3.5608735E-2,7.8271735E-1,6.9967933E0,5.595962E0,-5.723437E-1,9.492956E-1,-2.156431E0,-6.0581076E-1,2.4944382E0,4.12665E-2,1.0201384E0,6.02428E-1,4.1535916E0,-5.1650363E-1,-2.4426322E0,2.7847022E-1,1.0106891E0,9.4683677E-1,8.758825E0],"categories":[],"categories_nodes":[],"categories_segments":[],"categories_sizes":[],"default_left":[0,0,0,0,0,0,0,0,0,0,0,0,0,0,0,0,0,0,0,0,0,0,0,0,0,0,0,0,0,0,0,0,0,0,0,0,0,0,0,0,0,0,0,0,0,0,0,0,0,0,0,0,0,0,0,0,0,0,0,0,0,0,0,0,0,0,0,0,0,0,0,0,0,0,0,0,0,0,0,0,0,0,0,0,0],"id":12,"left_children":[1,3,5,7,9,11,13,15,17,19,-1,21,23,25,27,29,31,33,35,37,39,41,43,45,-1,47,-1,49,51,53,55,57,59,61,63,65,67,69,71,-1,73,75,77,79,-1,-1,-1,81,83,-1,-1,-1,-1,-1,-1,-1,-1,-1,-1,-1,-1,-1,-1,-1,-1,-1,-1,-1,-1,-1,-1,-1,-1,-1,-1,-1,-1,-1,-1,-1,-1,-1,-1,-1,-1],"loss_changes":[3.138401E3,2.731942E3,1.9324517E3,2.477821E3,3.4215896E3,1.8094219E3,3.1590103E3,2.5120828E3,3.1926104E3,1.3259525E3,0E0,1.6572759E3,4.5651016E3,1.5589822E3,1.3763406E3,1.9550834E3,8.5333813E2,4.4115166E3,1.7716924E3,5.576112E2,1.01216235E3,1.6002249E3,1.4605101E4,1.6731953E1,0E0,1.4951394E3,0E0,1.7058203E2,2.7960272E2,1.6901143E3,1.119227E3,4.1696423E2,2.1986267E3,2.7023772E3,3.4307988E3,1.01436664E3,1.667184E3,6.117296E2,5.8010034E2,0E0,1.1393211E2,1.276583E3,2.1902417E3,4.1917297E1,0E0,0E0,0E0,9.3210376E2,4.2522793E3,0E0,0E0,0E0,0E0,0E0,0E0,0E0,0E0,0E0,0E0,0E0,0E0,0E0,0E0,0E0,0E0,0E0,0E0,0E0,0E0,0E0,0E0,0E0,0E0,0E0,0E0,0E0,0E0,0E0,0E0,0E0,0E0,0E0,0E0,0E0,0E0],"parents":[2147483647,0,0,1,1,2,2,3,3,4,4,5,5,6,6,7,7,8,8,9,9,11,11,12,12,13,13,14,14,15,15,16,16,17,17,18,18,19,19,20,20,21,21,22,22,23,23,25,25,27,27,28,28,29,29,30,30,31,31,32,32,33,33,34,34,35,35,36,36,37,37,38,38,40,40,41,41,42,42,43,43,47,47,48,48],"right_children":[2,4,6,8,10,12,14,16,18,20,-1,22,24,26,28,30,32,34,36,38,40,42,44,46,-1,48,-1,50,52,54,56,58,60,62,64,66,68,70,72,-1,74,76,78,80,-1,-1,-1,82,84,-1,-1,-1,-1,-1,-1,-1,-1,-1,-1,-1,-1,-1,-1,-1,-1,-1,-1,-1,-1,-1,-1,-1,-1,-1,-1,-1,-1,-1,-1,-1,-1,-1,-1,-1,-1],"split_conditions":[3E0,5E0,1E0,5E0,1.1E1,9E0,5E0,5E0,1E0,6E0,1.2200341E1,7E0,1E0,6E0,6E0,2E0,1.1E1,3E0,7E0,1E0,6E0,1E1,1E0,1E0,1.7005875E1,3E0,8.757422E0,1E0,2E0,5E0,1E0,2E0,1E0,2E0,1E0,1E0,6E0,2E0,7E0,9.633296E0,2E0,1E0,3E0,1E0,2.680581E1,1.5851475E-1,-8.963818E-1,5E0,1E0,2.0832021E0,9.536525E0,2.295872E0,-2.306913E0,-4.4999126E-2,6.260905E-2,1.0025E-2,2.4210821E-1,2.3880088E-1,1.2165052E0,5.70961E-1,6.4995866E0,4.9291722E-2,4.8686656E-1,4.897618E-1,2.4650228E0,-5.489308E-2,3.5608735E-2,7.8271735E-1,6.9967933E0,5.595962E0,-5.723437E-1,9.492956E-1,-2.156431E0,-6.0581076E-1,2.4944382E0,4.12665E-2,1.0201384E0,6.02428E-1,4.1535916E0,-5.1650363E-1,-2.4426322E0,2.7847022E-1,1.0106891E0,9.4683677E-1,8.758825E0],"split_indices":[9,0,11,7,7,8,6,13,26,4,0,12,5,13,7,11,13,3,4,4,0,7,2,1,0,6,0,5,0,1,3,5,12,15,35,38,3,3,7,0,3,39,6,0,0,0,0,4,35,0,0,0,0,0,0,0,0,0,0,0,0,0,0,0,0,0,0,0,0,0,0,0,0,0,0,0,0,0,0,0,0,0,0,0,0],"split_type":[0,0,0,0,0,0,0,0,0,0,0,0,0,0,0,0,0,0,0,0,0,0,0,0,0,0,0,0,0,0,0,0,0,0,0,0,0,0,0,0,0,0,0,0,0,0,0,0,0,0,0,0,0,0,0,0,0,0,0,0,0,0,0,0,0,0,0,0,0,0,0,0,0,0,0,0,0,0,0,0,0,0,0,0,0],"sum_hessian":[3.37771E5,3.28028E5,9.743E3,3.27986E5,4.2E1,7.349E3,2.394E3,1.93068E5,1.34918E5,4E1,2E0,7.344E3,5E0,2.386E3,8E0,1.9066E5,2.408E3,7.8001E4,5.6917E4,3.4E1,6E0,7.336E3,8E0,4E0,1E0,2.385E3,1E0,5E0,3E0,1.83157E5,7.503E3,2.372E3,3.6E1,7.6749E4,1.252E3,5.6745E4,1.72E2,5E0,2.9E1,2E0,4E0,7.117E3,2.19E2,7E0,1E0,2E0,2E0,2.315E3,7E1,1E0,4E0,2E0,1E0,1.68914E5,1.4243E4,3.961E3,3.542E3,2.333E3,3.9E1,3E1,6E0,7.5458E4,1.291E3,1.168E3,8.4E1,4.1508E4,1.5237E4,1.69E2,3E0,3E0,2E0,2.3E1,6E0,1E0,3E0,6.996E3,1.21E2,2.03E2,1.6E1,2E0,5E0,2.147E3,1.68E2,6.4E1,6E0],"tree_param":{"num_deleted":"0","num_feature":"41","num_nodes":"85","size_leaf_vector":"1"}},{"base_weights":[1.4417212E-3,-1.1648935E-2,6.171436E-1,-3.469601E-2,2.887635E-1,1.1037884E0,9.280486E-2,-9.4562784E-2,8.724016E-2,1.9097595E-1,1.3272039E0,5.8186024E-1,2.329234E0,5.8831856E-2,1.648365E1,-1.066009E-1,4.8562938E-1,6.393332E-2,1.1234702E0,2.3945238E-2,6.5923584E-1,1.0937665E0,7.7461247E0,5.179128E-1,1.21696005E1,1.4164563E0,5.1905947E0,4.815385E-2,5.420973E0,3.6291554E0,1.40415945E1,-1.0786906E-1,4.307118E0,3.9260185E-1,1.6126857E0,3.854651E-2,8.8414526E-1,2.3821619E0,-7.0131436E-2,8.254834E-5,3.0310252E0,6.4554673E-1,1.1627765E1,2.3966321E-1,2.1311727E0,1.0411867E0,1.7420822E1,4.4754115E-1,6.4048285E0,1.4211407E0,2.2784939E1,1.1144251E0,8.88522E0,4.5436287E0,2.2944574E1,5.264738E-1,-3.0009553E-1,1.8077928E0,-7.763235E-1,-4.461239E-2,6.3429293E-3,6.852849E-1,7.587695E0,1.5282546E-1,-6.0995974E-2,4.1918692E-1,2.4386084E0,6.9386377E-3,4.0896192E-1,1.03753515E-1,5.6262606E-1,5.797348E-1,1.9272522E0,-7.537734E-2,1.27644E0,-2.0845963E-3,3.018901E0,6.389891E-1,4.3224144E0,1.5674709E-1,5.235001E-1,9.561433E0,8.8257354E-1,1.4330314E-2,2.8266926E0,4.3129253E-1,1.3050694E0,-6.622758E-2,1.2958827E0,1.904148E0,9.773874E0,1.3000299E-1,3.6602795E0,8.9075756E-1,1.59057455E1,1.3223423E-1,1.977819E0,2.52456E-1,1.9170017E0,3.3126967E0,-2.692523E0,8.598378E-2,1.6145084E0,1.2484455E0,2.5981394E1,1.3270406E-1,1.760265E0,-1.126229E-3,-4.055263E-1,-2.9704812E-1,-5.229748E-2],"categories":[],"categories_nodes":[],"categories_segments":[],"categories_sizes":[],"default_left":[0,0,0,0,0,0,0,0,0,0,0,0,0,0,0,0,0,0,0,0,0,0,0,0,0,0,0,0,0,0,0,0,0,0,0,0,0,0,0,0,0,0,0,0,0,0,0,0,0,0,0,0,0,0,0,0,0,0,0,0,0,0,0,0,0,0,0,0,0,0,0,0,0,0,0,0,0,0,0,0,0,0,0,0,0,0,0,0,0,0,0,0,0,0,0,0,0,0,0,0,0,0,0,0,0,0,0,0,0,0,0],"id":13,"left_children":[1,3,5,7,9,11,13,15,17,19,21,23,25,27,29,31,33,35,37,39,41,43,45,47,49,51,53,55,-1,57,-1,59,61,63,65,67,69,71,73,75,77,79,81,83,85,87,89,91,93,95,-1,97,99,101,103,105,107,-1,109,-1,-1,-1,-1,-1,-1,-1,-1,-1,-1,-1,-1,-1,-1,-1,-1,-1,-1,-1,-1,-1,-1,-1,-1,-1,-1,-1,-1,-1,-1,-1,-1,-1,-1,-1,-1,-1,-1,-1,-1,-1,-1,-1,-1,-1,-1,-1,-1,-1,-1,-1,-1],"loss_changes":[2.7224294E3,2.2899373E3,1.7942297E3,2.24237E3,2.392792E3,2.331246E3,1.8845115E3,1.4390175E3,2.442875E3,1.6846306E3,3.030317E3,1.8899329E3,2.8368828E3,6.4917957E2,2.5585237E3,1.130206E3,4.3846722E2,2.0599011E3,3.3429543E3,1.1392859E3,8.427859E2,1.7343792E3,4.587507E3,1.0518698E3,9.489607E3,1.8556449E3,2.916625E3,5.630137E2,0E0,6.803295E1,0E0,1.0631299E3,2.4043018E3,2.6950745E2,4.3636548E2,1.9597615E3,1.5841536E3,1.9562017E3,8.9644836E2,1.1146644E3,1.2507362E3,7.644514E2,1.1370723E3,1.8938164E3,1.354209E3,1.7885269E2,4.6612383E3,4.1473325E2,4.6470728E3,6.300429E1,0E0,1.14065E3,1.3319531E3,9.0821094E2,1.0401191E4,6.3724835E2,6.095824E2,0E0,2.1357882E-1,0E0,0E0,0E0,0E0,0E0,0E0,0E0,0E0,0E0,0E0,0E0,0E0,0E0,0E0,0E0,0E0,0E0,0E0,0E0,0E0,0E0,0E0,0E0,0E0,0E0,0E0,0E0,0E0,0E0,0E0,0E0,0E0,0E0,0E0,0E0,0E0,0E0,0E0,0E0,0E0,0E0,0E0,0E0,0E0,0E0,0E0,0E0,0E0,0E0,0E0,0E0,0E0],"parents":[2147483647,0,0,1,1,2,2,3,3,4,4,5,5,6,6,7,7,8,8,9,9,10,10,11,11,12,12,13,13,14,14,15,15,16,16,17,17,18,18,19,19,20,20,21,21,22,22,23,23,24,24,25,25,26,26,27,27,29,29,31,31,32,32,33,33,34,34,35,35,36,36,37,37,38,38,39,39,40,40,41,41,42,42,43,43,44,44,45,45,46,46,47,47,48,48,49,49,51,51,52,52,53,53,54,54,55,55,56,56,58,58],"right_children":[2,4,6,8,10,12,14,16,18,20,22,24,26,28,30,32,34,36,38,40,42,44,46,48,50,52,54,56,-1,58,-1,60,62,64,66,68,70,72,74,76,78,80,82,84,86,88,90,92,94,96,-1,98,100,102,104,106,108,-1,110,-1,-1,-1,-1,-1,-1,-1,-1,-1,-1,-1,-1,-1,-1,-1,-1,-1,-1,-1,-1,-1,-1,-1,-1,-1,-1,-1,-1,-1,-1,-1,-1,-1,-1,-1,-1,-1,-1,-1,-1,-1,-1,-1,-1,-1,-1,-1,-1,-1,-1,-1,-1],"split_conditions":[3E0,2E0,1E0,7E0,3E0,1E0,1E0,4E0,1E0,5E0,1E0,7E0,1E0,8E0,2E0,9E0,8E0,1E0,1E0,4E0,5E0,1E0,1E0,5E0,1E0,3E0,1.1E1,1E0,5.420973E0,1E0,1.40415945E1,1E0,1E0,1E0,2E0,1E0,1.5E1,4E0,1E0,9E0,3E0,9E0,2E0,1.1E1,1E0,4E0,2E0,7E0,3E0,2E0,2.2784939E1,1E0,9E0,1E0,1E0,3E0,1E0,1.8077928E0,1E0,-4.461239E-2,6.3429293E-3,6.852849E-1,7.587695E0,1.5282546E-1,-6.0995974E-2,4.1918692E-1,2.4386084E0,6.9386377E-3,4.0896192E-1,1.03753515E-1,5.6262606E-1,5.797348E-1,1.9272522E0,-7.537734E-2,1.27644E0,-2.0845963E-3,3.018901E0,6.389891E-1,4.3224144E0,1.5674709E-1,5.235001E-1,9.561433E0,8.8257354E-1,1.4330314E-2,2.8266926E0,4.3129253E-1,1.3050694E0,-6.622758E-2,1.2958827E0,1.904148E0,9.773874E0,1.3000299E-1,3.6602795E0,8.9075756E-1,1.59057455E1,1.3223423E-1,1.977819E0,2.52456E-1,1.9170017E0,3.3126967E0,-2.692523E0,8.598378E-2,1.6145084E0,1.2484455E0,2.5981394E1,1.3270406E-1,1.760265E0,-1.126229E-3,-4.055263E-1,-2.9704812E-1,-5.229748E-2],"split_indices":[12,5,10,7,3,20,13,13,6,1,35,12,14,11,3,8,13,28,26,16,6,15,6,3,2,6,7,26,0,8,0,12,5,8,1,18,7,3,24,13,8,1,4,7,33,3,9,9,0,9,0,39,7,4,3,0,20,0,0,0,0,0,0,0,0,0,0,0,0,0,0,0,0,0,0,0,0,0,0,0,0,0,0,0,0,0,0,0,0,0,0,0,0,0,0,0,0,0,0,0,0,0,0,0,0,0,0,0,0,0,0],"split_type":[0,0,0,0,0,0,0,0,0,0,0,0,0,0,0,0,0,0,0,0,0,0,0,0,0,0,0,0,0,0,0,0,0,0,0,0,0,0,0,0,0,0,0,0,0,0,0,0,0,0,0,0,0,0,0,0,0,0,0,0,0,0,0,0,0,0,0,0,0,0,0,0,0,0,0,0,0,0,0,0,0,0,0,0,0,0,0,0,0,0,0,0,0,0,0,0,0,0,0,0,0,0,0,0,0,0,0,0,0,0,0],"sum_hessian":[3.37771E5,3.3074E5,7.031E3,3.07175E5,2.3565E4,3.646E3,3.385E3,2.06024E5,1.01151E5,2.1538E4,2.027E3,2.558E3,1.088E3,3.379E3,6E0,2.01837E5,4.187E3,9.8927E4,2.224E3,1.5876E4,5.662E3,1.957E3,7E1,2.545E3,1.3E1,8.26E2,2.62E2,3.378E3,1E0,5E0,1E0,2.0178E5,5.7E1,3.869E3,3.18E2,9.5958E4,2.969E3,1.082E3,1.142E3,1.5752E4,1.24E2,5.656E3,6E0,1.074E3,8.83E2,4.2E1,2.8E1,2.516E3,2.9E1,1.2E1,1E0,7.95E2,3.1E1,2.54E2,8E0,1.423E3,1.955E3,3E0,2E0,1.53264E5,4.8516E4,5.3E1,4E0,3.235E3,6.34E2,3.09E2,9E0,9.4855E4,1.103E3,1.925E3,1.044E3,9.75E2,1.07E2,1.097E3,4.5E1,1.5742E4,1E1,1.16E2,8E0,5.088E3,5.68E2,1E0,5E0,1.053E3,2.1E1,6.74E2,2.09E2,3.1E1,1.1E1,1.7E1,1.1E1,2.514E3,2E0,2.8E1,1E0,1.1E1,1E0,7.57E2,3.8E1,2.8E1,3E0,4.2E1,2.12E2,7E0,1E0,1.402E3,2.1E1,1.526E3,4.29E2,1E0,1E0],"tree_param":{"num_deleted":"0","num_feature":"41","num_nodes":"111","size_leaf_vector":"1"}},{"base_weights":[1.4597387E-3,2.9355083E-2,-2.3656356E-1,1.7586542E-2,6.418116E-1,-2.4247016E-1,2.9810786E0,3.6764736E-3,5.109036E-1,4.7242308E-1,1.8791902E0,-1.8570073E-1,-5.577022E-1,2.301159E0,9.283428E0,-3.5651084E-3,8.4331393E-1,4.5515758E-1,3.2516942E0,4.61777E-1,8.077782E0,1.1672143E0,4.9738417E0,-1.9581172E-1,3.69204E0,1.9222777E-1,-7.812124E-1,1.3987606E0,5.7941895E0,2.3626894E-1,1.08250885E1,-2.8356498E-2,2.1986298E-1,2.524146E0,6.5010047E-1,4.1513953E-1,3.5395405E0,-4.327059E-1,8.223896E0,4.453958E-1,1.40604E1,1.5549928E0,-4.682813E0,2.0369813E0,1.3366714E1,-2.0191926E-1,3.1831303E0,5.131055E0,-3.252819E0,1.5604925E-1,3.3997128E0,-9.019002E-1,7.9648376E-1,2.3378747E0,3.528101E-2,1.1732753E1,1.3583136E0,3.5831177E0,9.525806E-1,1.2876836E-2,-3.3374123E-2,1.0187261E-1,-1.2881997E-1,5.5377525E-1,2.103086E0,9.458735E-2,4.1909215E-1,1.1011233E-1,8.284261E-1,5.772969E-1,3.8338544E0,1.5744511E0,-5.541694E-1,1.3031621E0,4.2295804E0,1.0160398E-1,5.394738E-1,4.811887E0,6.2464404E-1,3.3182847E-1,2.18366E0,-1.5121824E0,1.1223282E0,3.655886E-1,3.680298E0,2.7550657E0,2.2084187E1,-4.954434E-2,-1.9668856E-1,1.8236844E-1,7.105109E0,7.7085906E-1,2.9090714E0,-1.3311645E0,1.8216492E0,1.211035E-2,7.273981E-1,-3.1111047E-1,3.1506926E-2,1.623042E-1,5.793158E0,1.8710741E-1,1.3198988E0,-2.8668115E-1,1.0191699E0,4.055827E0,6.8791103E-1,-2.3104836E-1,1.1037986E0],"categories":[],"categories_nodes":[],"categories_segments":[],"categories_sizes":[],"default_left":[0,0,0,0,0,0,0,0,0,0,0,0,0,0,0,0,0,0,0,0,0,0,0,0,0,0,0,0,0,0,0,0,0,0,0,0,0,0,0,0,0,0,0,0,0,0,0,0,0,0,0,0,0,0,0,0,0,0,0,0,0,0,0,0,0,0,0,0,0,0,0,0,0,0,0,0,0,0,0,0,0,0,0,0,0,0,0,0,0,0,0,0,0,0,0,0,0,0,0,0,0,0,0,0,0,0,0,0,0],"id":14,"left_children":[1,3,5,7,9,11,13,15,17,19,21,23,25,27,29,31,33,35,37,39,-1,41,43,45,47,49,51,53,55,-1,57,59,61,63,65,67,69,71,73,75,77,79,81,83,85,87,89,91,93,95,-1,97,99,101,103,105,107,-1,-1,-1,-1,-1,-1,-1,-1,-1,-1,-1,-1,-1,-1,-1,-1,-1,-1,-1,-1,-1,-1,-1,-1,-1,-1,-1,-1,-1,-1,-1,-1,-1,-1,-1,-1,-1,-1,-1,-1,-1,-1,-1,-1,-1,-1,-1,-1,-1,-1,-1,-1],"loss_changes":[2.2427258E3,2.1791707E3,6.741372E2,2.0355706E3,1.1938196E3,6.3284375E2,2.5716827E2,1.7542131E3,1.2414521E3,1.3999219E3,1.5056704E3,1.175898E3,9.047792E2,1.8102164E2,7.0061035E1,1.5844138E3,7.995408E2,9.827698E2,2.9713306E3,1.110666E3,0E0,1.2753818E3,3.127805E3,6.176061E2,7.9620337E2,4.9799365E2,7.9243726E2,6.2660194E1,3.0017606E2,0E0,4.8623047E0,1.5212532E3,2.2206655E3,7.598876E2,5.531926E2,8.8747363E2,1.4977139E3,7.650545E2,1.511543E3,7.225432E2,1.08849E2,1.3409023E3,1.2434827E2,7.8879126E2,7.640754E3,4.9777893E2,2.8364673E3,7.352936E2,1.8156612E2,3.2453564E2,0E0,5.257488E2,1.3895673E3,9.975014E1,7.320386E1,5.3327698E1,4.2355446E1,0E0,0E0,0E0,0E0,0E0,0E0,0E0,0E0,0E0,0E0,0E0,0E0,0E0,0E0,0E0,0E0,0E0,0E0,0E0,0E0,0E0,0E0,0E0,0E0,0E0,0E0,0E0,0E0,0E0,0E0,0E0,0E0,0E0,0E0,0E0,0E0,0E0,0E0,0E0,0E0,0E0,0E0,0E0,0E0,0E0,0E0,0E0,0E0,0E0,0E0,0E0,0E0],"parents":[2147483647,0,0,1,1,2,2,3,3,4,4,5,5,6,6,7,7,8,8,9,9,10,10,11,11,12,12,13,13,14,14,15,15,16,16,17,17,18,18,19,19,21,21,22,22,23,23,24,24,25,25,26,26,27,27,28,28,30,30,31,31,32,32,33,33,34,34,35,35,36,36,37,37,38,38,39,39,40,40,41,41,42,42,43,43,44,44,45,45,46,46,47,47,48,48,49,49,51,51,52,52,53,53,54,54,55,55,56,56],"right_children":[2,4,6,8,10,12,14,16,18,20,22,24,26,28,30,32,34,36,38,40,-1,42,44,46,48,50,52,54,56,-1,58,60,62,64,66,68,70,72,74,76,78,80,82,84,86,88,90,92,94,96,-1,98,100,102,104,106,108,-1,-1,-1,-1,-1,-1,-1,-1,-1,-1,-1,-1,-1,-1,-1,-1,-1,-1,-1,-1,-1,-1,-1,-1,-1,-1,-1,-1,-1,-1,-1,-1,-1,-1,-1,-1,-1,-1,-1,-1,-1,-1,-1,-1,-1,-1,-1,-1,-1,-1,-1,-1],"split_conditions":[1E0,2E0,5E0,2.5E1,1E0,1E0,4E0,8E0,1E0,8E0,7E0,3.7E1,1E0,1E0,1E0,2E0,1E0,1E0,1E0,6E0,8.077782E0,3E0,2E0,6E0,1E0,5E0,1E0,4E0,1E0,2.3626894E-1,3E0,1E0,1E0,3E0,1E0,1E0,1E0,2.6E1,1E0,7E0,1E0,4E0,3E0,3E0,3E0,2E1,3E0,1E0,1E0,2E0,3.3997128E0,4E0,3.9E1,1E0,2E0,5E0,1E0,3.5831177E0,9.525806E-1,1.2876836E-2,-3.3374123E-2,1.0187261E-1,-1.2881997E-1,5.5377525E-1,2.103086E0,9.458735E-2,4.1909215E-1,1.1011233E-1,8.284261E-1,5.772969E-1,3.8338544E0,1.5744511E0,-5.541694E-1,1.3031621E0,4.2295804E0,1.0160398E-1,5.394738E-1,4.811887E0,6.2464404E-1,3.3182847E-1,2.18366E0,-1.5121824E0,1.1223282E0,3.655886E-1,3.680298E0,2.7550657E0,2.2084187E1,-4.954434E-2,-1.9668856E-1,1.8236844E-1,7.105109E0,7.7085906E-1,2.9090714E0,-1.3311645E0,1.8216492E0,1.211035E-2,7.273981E-1,-3.1111047E-1,3.1506926E-2,1.623042E-1,5.793158E0,1.8710741E-1,1.3198988E0,-2.8668115E-1,1.0191699E0,4.055827E0,6.8791103E-1,-2.3104836E-1,1.1037986E0],"split_indices":[40,16,11,7,14,20,4,1,21,9,7,7,22,20,1,3,34,18,27,6,0,11,15,3,29,15,31,7,26,0,1,37,23,12,17,28,29,7,17,1,2,9,8,0,11,7,5,22,33,3,0,4,7,12,15,1,6,0,0,0,0,0,0,0,0,0,0,0,0,0,0,0,0,0,0,0,0,0,0,0,0,0,0,0,0,0,0,0,0,0,0,0,0,0,0,0,0,0,0,0,0,0,0,0,0,0,0,0,0],"split_type":[0,0,0,0,0,0,0,0,0,0,0,0,0,0,0,0,0,0,0,0,0,0,0,0,0,0,0,0,0,0,0,0,0,0,0,0,0,0,0,0,0,0,0,0,0,0,0,0,0,0,0,0,0,0,0,0,0,0,0,0,0,0,0,0,0,0,0,0,0,0,0,0,0,0,0,0,0,0,0,0,0,0,0,0,0,0,0,0,0,0,0,0,0,0,0,0,0,0,0,0,0,0,0,0,0,0,0,0,0],"sum_hessian":[3.37771E5,3.02339E5,3.5432E4,2.9664E5,5.699E3,3.5368E4,6.4E1,2.88506E5,8.134E3,5.014E3,6.85E2,2.9972E4,5.396E3,5.9E1,5E0,2.8604E5,2.466E3,7.973E3,1.61E2,5.013E3,1E0,5.58E2,1.27E2,2.9895E4,7.7E1,1.239E3,4.157E3,4.8E1,1.1E1,1E0,4E0,2.57472E5,2.8568E4,2.53E2,2.213E3,7.872E3,1.01E2,9.3E1,6.8E1,5.008E3,5E0,5.24E2,3.4E1,9.5E1,3.2E1,2.9842E4,5.3E1,6.4E1,1.3E1,1.236E3,3E0,3.862E3,2.95E2,2.8E1,2E1,4E0,7E0,3E0,1E0,1.38432E5,1.1904E5,2.4121E4,4.447E3,2.21E2,3.2E1,1.529E3,6.84E2,7.715E3,1.57E2,8.7E1,1.4E1,1.8E1,7.5E1,4.2E1,2.6E1,4.643E3,3.65E2,4E0,1E0,4.87E2,3.7E1,3.3E1,1E0,8.9E1,6E0,3.1E1,1E0,2.7606E4,2.236E3,4.8E1,5E0,4.2E1,2.2E1,1.2E1,1E0,1.177E3,5.9E1,3.405E3,4.57E2,2.92E2,3E0,1.6E1,1.2E1,1.6E1,4E0,3E0,1E0,4E0,3E0],"tree_param":{"num_deleted":"0","num_feature":"41","num_nodes":"109","size_leaf_vector":"1"}},{"base_weights":[1.2996669E-3,-1.8574579E-2,2.5088242E-1,-2.3087487E-2,1.1137334E0,2.4108233E-1,5.6612787E0,-3.6940627E-2,3.349848E-1,1.069715E0,5.68102E0,1.8963693E-1,1.1789688E0,3.8279347E0,9.0156355E0,-4.6910647E-2,3.6385328E-1,3.1488833E-1,5.609091E0,1.0089128E0,1.0307142E1,1.4573057E-1,1.0288657E0,8.6187553E-1,5.309047E0,-3.0902953E0,6.605646E0,-5.437358E-2,3.9166424E-1,2.2125475E-1,1.848498E0,2.9759756E-1,6.347683E0,1.8919E-1,1.8518917E1,7.8374135E-1,3.445786E0,6.0895824E0,-4.758974E0,1.4369404E-1,6.866114E0,6.910932E-1,4.7650957E0,1.3391314E0,-5.6484425E-1,3.4673705E0,2.1908134E1,7.805197E-1,-5.6071196E0,2.7192678E0,1.4495113E1,-1.6976187E-2,4.339001E-1,1.0013689E-1,8.1392556E-1,4.38533E-2,6.4474607E-1,2.557115E-1,1.8971156E0,8.688734E-2,3.5239882E0,9.0285075E-1,6.2603736E0,2.0243003E0,-3.8257694E-1,2.5501284E-1,1.3985732E1,-5.343914E-2,5.177132E-1,1.15481E-1,3.4045508E0,-8.486882E-2,-1.8470105E0,4.009703E-2,1.077411E0,1.7837092E-1,2.7599888E0,8.4927076E-1,3.3690784E0,1.6431168E-1,5.683912E-1,-5.848267E-1,2.609961E-1,1.2684898E0,-3.8424823E0,1.0297736E1,-6.586128E-1,9.548609E-1,-3.6491182E-1,-9.5069283E-1,-2.58431E0,2.7901165E0,-7.6569223E-1,1.140803E0,7.328105E0],"categories":[],"categories_nodes":[],"categories_segments":[],"categories_sizes":[],"default_left":[0,0,0,0,0,0,0,0,0,0,0,0,0,0,0,0,0,0,0,0,0,0,0,0,0,0,0,0,0,0,0,0,0,0,0,0,0,0,0,0,0,0,0,0,0,0,0,0,0,0,0,0,0,0,0,0,0,0,0,0,0,0,0,0,0,0,0,0,0,0,0,0,0,0,0,0,0,0,0,0,0,0,0,0,0,0,0,0,0,0,0,0,0,0,0],"id":15,"left_children":[1,3,5,7,9,11,13,15,17,19,-1,21,23,25,-1,27,29,31,33,35,37,39,41,43,45,47,49,51,53,55,57,59,61,63,65,67,69,-1,71,73,-1,75,77,79,81,83,85,87,89,91,93,-1,-1,-1,-1,-1,-1,-1,-1,-1,-1,-1,-1,-1,-1,-1,-1,-1,-1,-1,-1,-1,-1,-1,-1,-1,-1,-1,-1,-1,-1,-1,-1,-1,-1,-1,-1,-1,-1,-1,-1,-1,-1,-1,-1],"loss_changes":[1.6754447E3,1.5987408E3,1.3195829E3,1.5457751E3,9.541399E2,1.1997046E3,1.8972188E3,1.1988461E3,1.2284705E3,6.8605457E2,0E0,8.6860315E2,1.6887631E3,8.467378E2,0E0,9.5814905E2,1.5412498E3,1.2043707E3,3.0751755E3,6.73864E2,1.3008611E3,1.0344065E3,1.475766E3,8.1921063E2,2.7364905E3,1.3102457E2,9.110891E2,9.563052E2,6.5714764E2,9.6148987E2,2.8387407E3,1.0492861E3,1.5367454E3,3.1595026E2,6.4148545E3,1.0241482E3,2.5112903E3,0E0,2.328363E1,7.748506E2,0E0,8.7825507E2,1.1811814E3,3.9507947E2,6.016599E2,1.0944639E3,2.7691387E3,3.2654964E1,3.1358093E1,7.8698065E2,9.6907446E2,0E0,0E0,0E0,0E0,0E0,0E0,0E0,0E0,0E0,0E0,0E0,0E0,0E0,0E0,0E0,0E0,0E0,0E0,0E0,0E0,0E0,0E0,0E0,0E0,0E0,0E0,0E0,0E0,0E0,0E0,0E0,0E0,0E0,0E0,0E0,0E0,0E0,0E0,0E0,0E0,0E0,0E0,0E0,0E0],"parents":[2147483647,0,0,1,1,2,2,3,3,4,4,5,5,6,6,7,7,8,8,9,9,11,11,12,12,13,13,15,15,16,16,17,17,18,18,19,19,20,20,21,21,22,22,23,23,24,24,25,25,26,26,27,27,28,28,29,29,30,30,31,31,32,32,33,33,34,34,35,35,36,36,38,38,39,39,41,41,42,42,43,43,44,44,45,45,46,46,47,47,48,48,49,49,50,50],"right_children":[2,4,6,8,10,12,14,16,18,20,-1,22,24,26,-1,28,30,32,34,36,38,40,42,44,46,48,50,52,54,56,58,60,62,64,66,68,70,-1,72,74,-1,76,78,80,82,84,86,88,90,92,94,-1,-1,-1,-1,-1,-1,-1,-1,-1,-1,-1,-1,-1,-1,-1,-1,-1,-1,-1,-1,-1,-1,-1,-1,-1,-1,-1,-1,-1,-1,-1,-1,-1,-1,-1,-1,-1,-1,-1,-1,-1,-1,-1,-1],"split_conditions":[1E0,4E0,4E0,1E0,6E0,2.2E1,4E0,1E0,1E0,5E0,5.68102E0,2E0,1E0,1E0,9.0156355E0,5E0,2E0,5E0,1E0,3E0,1E0,8E0,3E0,3.1E1,3.7E1,2E0,1E0,5E0,3E0,2.3E1,1E0,7E0,2E0,1E1,1.5E1,3E0,7E0,6.0895824E0,3E0,3E0,6.866114E0,1E1,1E0,1E0,1E0,3.6E1,1E0,1E0,3E0,1E0,1E0,-1.6976187E-2,4.339001E-1,1.0013689E-1,8.1392556E-1,4.38533E-2,6.4474607E-1,2.557115E-1,1.8971156E0,8.688734E-2,3.5239882E0,9.0285075E-1,6.2603736E0,2.0243003E0,-3.8257694E-1,2.5501284E-1,1.3985732E1,-5.343914E-2,5.177132E-1,1.15481E-1,3.4045508E0,-8.486882E-2,-1.8470105E0,4.009703E-2,1.077411E0,1.7837092E-1,2.7599888E0,8.4927076E-1,3.3690784E0,1.6431168E-1,5.683912E-1,-5.848267E-1,2.609961E-1,1.2684898E0,-3.8424823E0,1.0297736E1,-6.586128E-1,9.548609E-1,-3.6491182E-1,-9.5069283E-1,-2.58431E0,2.7901165E0,-7.6569223E-1,1.140803E0,7.328105E0],"split_indices":[31,15,6,28,10,7,11,21,19,6,0,15,25,5,0,4,3,9,33,8,8,9,12,7,7,12,10,12,11,7,14,8,6,7,7,1,7,0,4,6,0,1,14,22,26,7,39,3,4,0,16,0,0,0,0,0,0,0,0,0,0,0,0,0,0,0,0,0,0,0,0,0,0,0,0,0,0,0,0,0,0,0,0,0,0,0,0,0,0,0,0,0,0,0,0],"split_type":[0,0,0,0,0,0,0,0,0,0,0,0,0,0,0,0,0,0,0,0,0,0,0,0,0,0,0,0,0,0,0,0,0,0,0,0,0,0,0,0,0,0,0,0,0,0,0,0,0,0,0,0,0,0,0,0,0,0,0,0,0,0,0,0,0,0,0,0,0,0,0,0,0,0,0,0,0,0,0,0,0,0,0,0,0,0,0,0,0,0,0,0,0,0,0],"sum_hessian":[3.37771E5,3.12859E5,2.4912E4,3.11618E5,1.241E3,2.4868E4,4.4E1,3.00012E5,1.1606E4,1.239E3,2E0,2.3576E4,1.292E3,4.2E1,2E0,2.92731E5,7.281E3,1.1563E4,4.3E1,1.232E3,7E0,2.2405E4,1.171E3,1.201E3,9.1E1,1.2E1,3E1,2.87834E5,4.897E3,6.644E3,6.37E2,1.1531E4,3.2E1,3.1E1,1.2E1,1.129E3,1.03E2,4E0,3E0,2.2404E4,1E0,1.075E3,9.6E1,9E2,3.01E2,8.3E1,8E0,5E0,7E0,2.1E1,9E0,2.87411E5,4.23E2,4.779E3,1.18E2,6.396E3,2.48E2,5.22E2,1.15E2,1.1524E4,7E0,2.7E1,5E0,5E0,2.6E1,8E0,4E0,5.59E2,5.7E2,7.5E1,2.8E1,1E0,2E0,2.234E4,6.4E1,1.064E3,1.1E1,7.5E1,2.1E1,3.72E2,5.28E2,1.53E2,1.48E2,8E1,3E0,5E0,3E0,2E0,3E0,5E0,2E0,9E0,1.2E1,5E0,4E0],"tree_param":{"num_deleted":"0","num_feature":"41","num_nodes":"95","size_leaf_vector":"1"}},{"base_weights":[1.157989E-3,-3.357635E-2,1.10839225E-1,-7.278898E-2,9.718225E-2,3.5655133E-2,4.8135856E-1,-4.680544E-2,-3.2643417E-1,5.9123307E-2,7.8946805E-1,3.3650085E-2,1.5076015E1,2.1242544E-1,1.318774E0,-7.470508E-2,2.0466064E-1,-4.447599E-1,4.4035524E-1,1.13957345E-1,-2.642922E-1,1.6401635E0,-9.606996E-2,1.2410237E-3,7.19505E-1,5.5450587E0,2.5603447E1,2.0120649E-1,1.6798956E1,9.999147E-1,4.456332E0,-8.577622E-2,4.143795E-1,-8.563955E-2,4.3300465E-1,-6.86537E-1,-8.896357E-2,1.2214481E-1,2.0389256E0,3.0953942E-2,3.9396238E-1,-2.684864E-1,8.326484E0,1.0465757E0,3.1808255E0,7.6661155E-2,-1.0373183E1,-2.7924713E-2,6.712285E-1,4.1348156E-1,3.2124E0,9.521511E0,-1.6052303E0,9.245307E0,1.4941084E0,1.6602784E-1,4.839954E0,-1.8458623E0,1.930018E1,1.4759219E0,5.3022023E-2,3.5307863E0,1.6285872E1,-2.5849838E-2,3.665566E0,1.1661651E-1,7.3797685E-1,-3.2804586E-2,1.5088104E-1,2.5569633E-1,-3.917148E-2,